{"learner":{"attributes":{"scikit_learn":"{\"_estimator_type\": \"classifier\"}"},"feature_names":[],"feature_types":[],"gradient_booster":{"model":{"gbtree_model_param":{"num_parallel_tree":"1","num_trees":"100"},"iteration_indptr":[0,1,2,3,4,5,6,7,8,9,10,11,12,13,14,15,16,17,18,19,20,21,22,23,24,25,26,27,28,29,30,31,32,33,34,35,36,37,38,39,40,41,42,43,44,45,46,47,48,49,50,51,52,53,54,55,56,57,58,59,60,61,62,63,64,65,66,67,68,69,70,71,72,73,74,75,76,77,78,79,80,81,82,83,84,85,86,87,88,89,90,91,92,93,94,95,96,97,98,99,100],"tree_info":[0,0,0,0,0,0,0,0,0,0,0,0,0,0,0,0,0,0,0,0,0,0,0,0,0,0,0,0,0,0,0,0,0,0,0,0,0,0,0,0,0,0,0,0,0,0,0,0,0,0,0,0,0,0,0,0,0,0,0,0,0,0,0,0,0,0,0,0,0,0,0,0,0,0,0,0,0,0,0,0,0,0,0,0,0,0,0,0,0,0,0,0,0,0,0,0,0,0,0,0],"trees":[{"base_weights":[3.5730332E-2,1.4874318E0,-2.4438334E-1,2.357803E0,1.1943729E0,3.5534567E-1,-3.3209458E-1,9.006497E-3,2.8093884E-2,-3.5090165E-3,1.4347156E-2,1.1476784E-3,1.9491438E-2,-3.5070463E-3,6.6426685E-3],"categories":[],"categories_nodes":[],"categories_segments":[],"categories_sizes":[],"default_left":[0,0,0,0,0,0,0,0,0,0,0,0,0,0,0],"id":0,"left_children":[1,3,5,7,9,11,13,-1,-1,-1,-1,-1,-1,-1,-1],"loss_changes":[7.701912E1,4.9971237E0,8.475436E0,1.8714676E0,9.766937E0,7.734226E0,2.812626E0,0E0,0E0,0E0,0E0,0E0,0E0,0E0,0E0],"parents":[2147483647,0,0,1,1,2,2,3,3,4,4,5,5,6,6],"right_children":[2,4,6,8,10,12,14,-1,-1,-1,-1,-1,-1,-1,-1],"split_conditions":[6.1639E4,2.4E1,8.5624E4,4.3E1,3.0636E4,1E1,7.4E1,9.006497E-3,2.8093884E-2,-3.5090165E-3,1.4347156E-2,1.1476784E-3,1.9491438E-2,-3.5070463E-3,6.6426685E-3],"split_indices":[4,9,4,3,4,10,3,0,0,0,0,0,0,0,0],"split_type":[0,0,0,0,0,0,0,0,0,0,0,0,0,0,0],"sum_hessian":[1.8750912E2,2.9631657E1,1.5787747E2,5.689278E0,2.3942379E1,1.9754438E1,1.3812303E2,2.0544615E0,3.6348166E0,3.16071E0,2.0781668E1,1.8095064E1,1.6593728E0,1.3622661E2,1.896426E0],"tree_param":{"num_deleted":"0","num_feature":"12","num_nodes":"15","size_leaf_vector":"1"}},{"base_weights":[5.5503625E-2,7.7246773E-1,-2.658769E-1,1.6480044E-1,1.0084713E0,-4.5176667E-1,5.401555E-2,7.7803032E-3,-3.8143154E-3,5.7521802E-3,1.6039306E-2,-7.4845054E-3,-3.0783906E-3,-3.8692553E-3,3.821082E-3],"categories":[],"categories_nodes":[],"categories_segments":[],"categories_sizes":[],"default_left":[0,0,0,0,0,0,0,0,0,0,0,0,0,0,0],"id":1,"left_children":[1,3,5,7,9,11,13,-1,-1,-1,-1,-1,-1,-1,-1],"loss_changes":[4.3495434E1,8.209904E0,7.7827635E0,6.169884E0,9.879856E0,3.297779E0,7.2141924E0,0E0,0E0,0E0,0E0,0E0,0E0,0E0,0E0],"parents":[2147483647,0,0,1,1,2,2,3,3,4,4,5,5,6,6],"right_children":[2,4,6,8,10,12,14,-1,-1,-1,-1,-1,-1,-1,-1],"split_conditions":[9.3359E4,5.09E1,5.4E1,5.8722E4,7E0,1.025E3,1.59275E5,7.7803032E-3,-3.8143154E-3,5.7521802E-3,1.6039306E-2,-7.4845054E-3,-3.0783906E-3,-3.8692553E-3,3.821082E-3],"split_indices":[4,7,3,4,10,8,4,0,0,0,0,0,0,0,0],"split_type":[0,0,0,0,0,0,0,0,0,0,0,0,0,0,0],"sum_hessian":[1.8687595E2,5.740599E1,1.2946996E2,1.653349E1,4.08725E1,8.162522E1,4.7844734E1,7.5891433E0,8.944345E0,2.4796616E1,1.6075888E1,2.5291212E1,5.633401E1,2.0335484E1,2.750925E1],"tree_param":{"num_deleted":"0","num_feature":"12","num_nodes":"15","size_leaf_vector":"1"}},{"base_weights":[1.1617247E-1,1.0093178E0,-3.037739E-1,2.3863788E0,7.623156E-1,6.2822586E-1,-3.3561602E-1,2.8311215E-2,1.1507227E-2,2.8701955E-3,1.1055104E-2,1.8406013E-2,-4.5612184E-3,-4.0822444E-3,5.421622E-4],"categories":[],"categories_nodes":[],"categories_segments":[],"categories_sizes":[],"default_left":[0,0,0,0,0,0,0,0,0,0,0,0,0,0,0],"id":2,"left_children":[1,3,5,7,9,11,13,-1,-1,-1,-1,-1,-1,-1,-1],"loss_changes":[7.250714E1,1.9199543E1,4.1193533E0,1.6490479E0,8.469259E0,7.017296E0,3.6452742E0,0E0,0E0,0E0,0E0,0E0,0E0,0E0,0E0],"parents":[2147483647,0,0,1,1,2,2,3,3,4,4,5,5,6,6],"right_children":[2,4,6,8,10,12,14,-1,-1,-1,-1,-1,-1,-1,-1],"split_conditions":[9.8788E4,3.5451E4,3E0,5.3E1,5E0,6.72E1,6E0,2.8311215E-2,1.1507227E-2,2.8701955E-3,1.1055104E-2,1.8406013E-2,-4.5612184E-3,-4.0822444E-3,5.421622E-4],"split_indices":[4,4,9,3,10,7,5,0,0,0,0,0,0,0,0],"split_type":[0,0,0,0,0,0,0,0,0,0,0,0,0,0,0],"sum_hessian":[1.9149722E2,6.0794834E1,1.307024E2,7.9289293E0,5.2865906E1,3.6992126E0,1.2700318E2,4.880963E0,3.0479667E0,2.2936752E1,2.9929153E1,1.4172274E0,2.281985E0,1.0702247E2,1.998071E1],"tree_param":{"num_deleted":"0","num_feature":"12","num_nodes":"15","size_leaf_vector":"1"}},{"base_weights":[-3.364212E-2,1.2033092E0,-2.8316632E-1,8.989242E-1,2.3942575E0,2.5817618E-1,-4.01535E-1,2.1948537E-2,6.9012726E-3,3.3239678E-2,2.9186963E-3,7.292097E-3,-5.6030015E-3,-5.057021E-3,-9.80144E-4],"categories":[],"categories_nodes":[],"categories_segments":[],"categories_sizes":[],"default_left":[0,0,0,0,0,0,0,0,0,0,0,0,0,0,0],"id":3,"left_children":[1,3,5,7,9,11,13,-1,-1,-1,-1,-1,-1,-1,-1],"loss_changes":[5.9990807E1,9.677059E0,1.0460567E1,5.950922E0,1.083823E1,1.1823749E1,4.1561317E0,0E0,0E0,0E0,0E0,0E0,0E0,0E0,0E0],"parents":[2147483647,0,0,1,1,2,2,3,3,4,4,5,5,6,6],"right_children":[2,4,6,8,10,12,14,-1,-1,-1,-1,-1,-1,-1,-1],"split_conditions":[6.1639E4,8.7E1,9.43E4,8E0,5.1E1,3.8E1,6E1,2.1948537E-2,6.9012726E-3,3.3239678E-2,2.9186963E-3,7.292097E-3,-5.6030015E-3,-5.057021E-3,-9.80144E-4],"split_indices":[4,9,4,9,3,6,3,0,0,0,0,0,0,0,0],"split_type":[0,0,0,0,0,0,0,0,0,0,0,0,0,0,0],"sum_hessian":[1.9226163E2,3.1631968E1,1.6062965E2,2.6590668E1,5.041301E0,2.8609053E1,1.3202061E2,2.369861E0,2.4220806E1,3.0926409E0,1.94866E0,1.8227932E1,1.038112E1,9.779247E1,3.4228134E1],"tree_param":{"num_deleted":"0","num_feature":"12","num_nodes":"15","size_leaf_vector":"1"}},{"base_weights":[-6.1530903E-2,1.1159344E0,-2.9901075E-1,8.3892745E-1,2.2908263E0,9.304401E-2,-3.9014304E-1,1.2089339E-2,3.2791443E-4,3.6754217E-2,3.6961057E-3,2.7850792E-3,-5.419069E-3,-5.184153E-3,-1.721518E-3],"categories":[],"categories_nodes":[],"categories_segments":[],"categories_sizes":[],"default_left":[0,0,0,0,0,0,0,0,0,0,0,0,0,0,0],"id":4,"left_children":[1,3,5,7,9,11,13,-1,-1,-1,-1,-1,-1,-1,-1],"loss_changes":[5.4213646E1,8.672089E0,5.793494E0,8.287813E0,1.3624914E1,3.8249E0,3.5720463E0,0E0,0E0,0E0,0E0,0E0,0E0,0E0,0E0],"parents":[2147483647,0,0,1,1,2,2,3,3,4,4,5,5,6,6],"right_children":[2,4,6,8,10,12,14,-1,-1,-1,-1,-1,-1,-1,-1],"split_conditions":[6.1639E4,8.7E1,9.8788E4,5.8E1,3.9683E4,6.3E1,5.4E1,1.2089339E-2,3.2791443E-4,3.6754217E-2,3.6961057E-3,2.7850792E-3,-5.419069E-3,-5.184153E-3,-1.721518E-3],"split_indices":[4,9,4,9,4,3,3,0,0,0,0,0,0,0,0],"split_type":[0,0,0,0,0,0,0,0,0,0,0,0,0,0,0],"sum_hessian":[1.9168703E2,3.1551294E1,1.6013573E2,2.6918667E1,4.632628E0,3.0198708E1,1.2993703E2,1.8107761E1,8.8109045E0,2.1616697E0,2.4709585E0,2.380642E1,6.3922873E0,8.093463E1,4.900239E1],"tree_param":{"num_deleted":"0","num_feature":"12","num_nodes":"15","size_leaf_vector":"1"}},{"base_weights":[-1.616721E-2,9.1355604E-1,-3.4761786E-1,6.521144E-1,2.2906568E0,9.720668E-1,-4.061617E-1,1.1980803E-2,4.076518E-3,3.294394E-2,9.2493405E-4,-1.4011286E-3,2.2206165E-2,-6.3672173E-3,-2.02675E-3],"categories":[],"categories_nodes":[],"categories_segments":[],"categories_sizes":[],"default_left":[0,0,0,0,0,0,0,0,0,0,0,0,0,0,0],"id":5,"left_children":[1,3,5,7,9,11,13,-1,-1,-1,-1,-1,-1,-1,-1],"loss_changes":[5.9483906E1,1.6772606E1,1.138612E1,5.389307E0,1.6678322E1,9.111838E0,6.2950115E0,0E0,0E0,0E0,0E0,0E0,0E0,0E0,0E0],"parents":[2147483647,0,0,1,1,2,2,3,3,4,4,5,5,6,6],"right_children":[2,4,6,8,10,12,14,-1,-1,-1,-1,-1,-1,-1,-1],"split_conditions":[8.192E4,8.9E1,4E0,1.6E1,5E1,1E0,7.155E1,1.1980803E-2,4.076518E-3,3.294394E-2,9.2493405E-4,-1.4011286E-3,2.2206165E-2,-6.3672173E-3,-2.02675E-3],"split_indices":[4,9,9,6,3,1,7,0,0,0,0,0,0,0,0],"split_type":[0,0,0,0,0,0,0,0,0,0,0,0,0,0,0],"sum_hessian":[1.910004E2,4.973549E1,1.4126491E2,4.3038246E1,6.697242E0,5.3377695E0,1.3592714E2,1.2104348E1,3.0933897E1,4.25541E0,2.4418318E0,3.2925873E0,2.0451822E0,6.2726257E1,7.320088E1],"tree_param":{"num_deleted":"0","num_feature":"12","num_nodes":"15","size_leaf_vector":"1"}},{"base_weights":[-2.003468E-2,6.598804E-1,-3.6736757E-1,3.8458562E-1,1.231548E0,-5.738995E-1,-1.7975482E-1,1.4096538E-3,1.4620796E-2,1.3526693E-3,1.7119592E-2,6.489368E-3,-6.256337E-3,8.830291E-3,-2.4401338E-3],"categories":[],"categories_nodes":[],"categories_segments":[],"categories_sizes":[],"default_left":[0,0,0,0,0,0,0,0,0,0,0,0,0,0,0],"id":6,"left_children":[1,3,5,7,9,11,13,-1,-1,-1,-1,-1,-1,-1,-1],"loss_changes":[4.5308548E1,9.737221E0,4.815893E0,1.1671105E1,1.0636103E1,4.199978E0,4.8578796E0,0E0,0E0,0E0,0E0,0E0,0E0,0E0,0E0],"parents":[2147483647,0,0,1,1,2,2,3,3,4,4,5,5,6,6],"right_children":[2,4,6,8,10,12,14,-1,-1,-1,-1,-1,-1,-1,-1],"split_conditions":[9.8788E4,7.1E1,4.5E1,9E0,5.491E1,1.523E1,4E0,1.4096538E-3,1.4620796E-2,1.3526693E-3,1.7119592E-2,6.489368E-3,-6.256337E-3,8.830291E-3,-2.4401338E-3],"split_indices":[4,9,3,10,7,7,9,0,0,0,0,0,0,0,0],"split_type":[0,0,0,0,0,0,0,0,0,0,0,0,0,0,0],"sum_hessian":[1.8983133E2,6.3881477E1,1.2594985E2,4.424662E1,1.9634855E1,5.8972027E1,6.697783E1,3.7009613E1,7.237007E0,6.373143E0,1.3261712E1,1.9250954E0,5.704693E1,3.0922787E0,6.388555E1],"tree_param":{"num_deleted":"0","num_feature":"12","num_nodes":"15","size_leaf_vector":"1"}},{"base_weights":[2.948187E-2,1.3689088E0,-2.5970244E-1,8.2743114E-1,2.9426062E0,1.9433309E-1,-3.6986008E-1,2.3968332E-2,5.727964E-3,3.9863084E-2,5.4161386E-3,5.125631E-3,-3.1280753E-3,-4.7833542E-3,2.4823396E-4],"categories":[],"categories_nodes":[],"categories_segments":[],"categories_sizes":[],"default_left":[0,0,0,0,0,0,0,0,0,0,0,0,0,0,0],"id":7,"left_children":[1,3,5,7,9,11,13,-1,-1,-1,-1,-1,-1,-1,-1],"loss_changes":[7.5152695E1,2.691909E1,8.057152E0,9.425192E0,1.8959297E1,5.2969875E0,5.527441E0,0E0,0E0,0E0,0E0,0E0,0E0,0E0,0E0],"parents":[2147483647,0,0,1,1,2,2,3,3,4,4,5,5,6,6],"right_children":[2,4,6,8,10,12,14,-1,-1,-1,-1,-1,-1,-1,-1],"split_conditions":[6.2327E4,8.2E1,9.8788E4,8E0,4E1,3.8E1,7.9E1,2.3968332E-2,5.727964E-3,3.9863084E-2,5.4161386E-3,5.125631E-3,-3.1280753E-3,-4.7833542E-3,2.4823396E-4],"split_indices":[4,9,4,9,6,6,9,0,0,0,0,0,0,0,0],"split_type":[0,0,0,0,0,0,0,0,0,0,0,0,0,0,0],"sum_hessian":[1.9210408E2,3.3447987E1,1.586561E2,2.6020605E1,7.42738E0,3.0828102E1,1.27827995E2,2.4580379E0,2.3562569E1,4.716751E0,2.7106287E0,1.8935444E1,1.1892657E1,1.0010348E2,2.7724522E1],"tree_param":{"num_deleted":"0","num_feature":"12","num_nodes":"15","size_leaf_vector":"1"}},{"base_weights":[-8.267735E-2,7.5652707E-1,-4.5048332E-1,9.081356E-1,-1.2939024E-1,-5.312707E-1,-4.013266E-2,7.0066582E-3,1.411269E-2,-5.9172306E-3,5.6039374E-3,9.1689255E-4,-5.8306325E-3,5.6724E-3,-3.0420136E-3],"categories":[],"categories_nodes":[],"categories_segments":[],"categories_sizes":[],"default_left":[0,0,0,0,0,0,0,0,0,0,0,0,0,0,0],"id":8,"left_children":[1,3,5,7,9,11,13,-1,-1,-1,-1,-1,-1,-1,-1],"loss_changes":[5.8920155E1,7.9351616E0,4.373806E0,4.2120895E0,3.3231266E0,3.6248074E0,3.8437676E0,0E0,0E0,0E0,0E0,0E0,0E0,0E0,0E0],"parents":[2147483647,0,0,1,1,2,2,3,3,4,4,5,5,6,6],"right_children":[2,4,6,8,10,12,14,-1,-1,-1,-1,-1,-1,-1,-1],"split_conditions":[9.0066E4,5.1E1,8.4E1,7.8E1,4.9E1,6E0,1E0,7.0066582E-3,1.411269E-2,-5.9172306E-3,5.6039374E-3,9.1689255E-4,-5.8306325E-3,5.6724E-3,-3.0420136E-3],"split_indices":[4,6,9,9,3,9,2,0,0,0,0,0,0,0,0],"split_type":[0,0,0,0,0,0,0,0,0,0,0,0,0,0,0],"sum_hessian":[1.8878331E2,5.72049E1,1.3157841E2,4.8824413E1,8.380484E0,1.0968886E2,2.1889557E1,3.626355E1,1.2560864E1,5.102594E0,3.27789E0,8.360359E0,1.013285E2,6.285191E0,1.5604365E1],"tree_param":{"num_deleted":"0","num_feature":"12","num_nodes":"15","size_leaf_vector":"1"}},{"base_weights":[-9.31443E-2,5.7086235E-1,-4.2815647E-1,1.5925367E0,4.212373E-1,3.3025447E-1,-4.6001375E-1,-2.747688E-3,2.0925198E-2,1.9411845E-2,3.3132534E-3,-7.53443E-3,1.2453202E-2,3.4217103E-4,-4.9889665E-3],"categories":[],"categories_nodes":[],"categories_segments":[],"categories_sizes":[],"default_left":[0,0,0,0,0,0,0,0,0,0,0,0,0,0,0],"id":9,"left_children":[1,3,5,7,9,11,13,-1,-1,-1,-1,-1,-1,-1,-1],"loss_changes":[4.2466854E1,9.124704E0,3.2137794E0,7.881401E0,7.181041E0,6.5815306E0,2.3622723E0,0E0,0E0,0E0,0E0,0E0,0E0,0E0,0E0],"parents":[2147483647,0,0,1,1,2,2,3,3,4,4,5,5,6,6],"right_children":[2,4,6,8,10,12,14,-1,-1,-1,-1,-1,-1,-1,-1],"split_conditions":[9.8788E4,3.2533E4,1.523E1,1E0,1.1384E2,3.603E2,6E0,-2.747688E-3,2.0925198E-2,1.9411845E-2,3.3132534E-3,-7.53443E-3,1.2453202E-2,3.4217103E-4,-4.9889665E-3],"split_indices":[4,4,7,11,8,8,9,0,0,0,0,0,0,0,0],"split_type":[0,0,0,0,0,0,0,0,0,0,0,0,0,0,0],"sum_hessian":[1.8880615E2,6.30784E1,1.2572775E2,6.82592E0,5.625248E1,4.6907454E0,1.2103701E2,1.5368041E0,5.289116E0,1.9917879E0,5.4260693E1,2.2283595E0,2.462386E0,8.836649E0,1.1220036E2],"tree_param":{"num_deleted":"0","num_feature":"12","num_nodes":"15","size_leaf_vector":"1"}},{"base_weights":[8.61513E-2,8.384308E-1,-2.9876208E-1,1.5725523E0,6.831369E-1,-3.8290408E-1,1.3485114E-1,8.122861E-3,3.6027353E-2,-1.8853382E-3,8.574117E-3,7.256249E-4,-4.661839E-3,4.5547634E-3,-5.349849E-3],"categories":[],"categories_nodes":[],"categories_segments":[],"categories_sizes":[],"default_left":[0,0,0,0,0,0,0,0,0,0,0,0,0,0,0],"id":10,"left_children":[1,3,5,7,9,11,13,-1,-1,-1,-1,-1,-1,-1,-1],"loss_changes":[5.5206135E1,6.279228E0,4.6592197E0,1.3270935E1,8.517881E0,4.055444E0,4.810208E0,0E0,0E0,0E0,0E0,0E0,0E0,0E0,0E0],"parents":[2147483647,0,0,1,1,2,2,3,3,4,4,5,5,6,6],"right_children":[2,4,6,8,10,12,14,-1,-1,-1,-1,-1,-1,-1,-1],"split_conditions":[9.8788E4,3.5451E4,6.6E1,8.5E1,2E0,1.4E1,1.0481E2,8.122861E-3,3.6027353E-2,-1.8853382E-3,8.574117E-3,7.256249E-4,-4.661839E-3,4.5547634E-3,-5.349849E-3],"split_indices":[4,4,3,9,5,9,7,0,0,0,0,0,0,0,0],"split_type":[0,0,0,0,0,0,0,0,0,0,0,0,0,0,0],"sum_hessian":[1.8878857E2,6.3501743E1,1.2528683E2,9.494072E0,5.400767E1,1.05024025E2,2.0262806E1,7.9260263E0,1.5680462E0,8.985094E0,4.502258E1,1.6254587E1,8.876943E1,1.3919895E1,6.3429103E0],"tree_param":{"num_deleted":"0","num_feature":"12","num_nodes":"15","size_leaf_vector":"1"}},{"base_weights":[-5.9481068E-3,7.326395E-1,-3.6143282E-1,5.4073644E-1,1.5068417E0,-6.3317883E-1,-2.3110694E-1,1.30341025E-2,2.2386115E-3,4.0131758E-4,2.10217E-2,-7.46108E-3,-3.2128658E-4,-2.8523963E-3,7.6223826E-3],"categories":[],"categories_nodes":[],"categories_segments":[],"categories_sizes":[],"default_left":[0,0,0,0,0,0,0,0,0,0,0,0,0,0,0],"id":11,"left_children":[1,3,5,7,9,11,13,-1,-1,-1,-1,-1,-1,-1,-1],"loss_changes":[5.068443E1,8.504452E0,4.468584E0,1.2233082E1,1.0306263E1,2.8039284E0,5.0378585E0,0E0,0E0,0E0,0E0,0E0,0E0,0E0,0E0],"parents":[2147483647,0,0,1,1,2,2,3,3,4,4,5,5,6,6],"right_children":[2,4,6,8,10,12,14,-1,-1,-1,-1,-1,-1,-1,-1],"split_conditions":[9.43E4,8.6E1,1.43248E5,1.7E1,5.491E1,6E0,5.8E1,1.30341025E-2,2.2386115E-3,4.0131758E-4,2.10217E-2,-7.46108E-3,-3.2128658E-4,-2.8523963E-3,7.6223826E-3],"split_indices":[4,9,4,6,7,5,6,0,0,0,0,0,0,0,0],"split_type":[0,0,0,0,0,0,0,0,0,0,0,0,0,0,0],"sum_hessian":[1.9103336E2,6.1725616E1,1.2930774E2,5.0825775E1,1.0899841E1,4.0662617E1,8.8645134E1,1.4004827E1,3.6820946E1,3.455049E0,7.4447923E0,3.4027893E1,6.6347218E0,8.474004E1,3.905088E0],"tree_param":{"num_deleted":"0","num_feature":"12","num_nodes":"15","size_leaf_vector":"1"}},{"base_weights":[4.9248766E-2,6.8243074E-1,-2.5348756E-1,4.484215E-1,1.7638692E0,-3.5969532E-1,1.4490826E-1,1.6490262E-2,3.3284428E-3,2.0338187E-2,-1.6790307E-3,-4.991208E-3,-3.34957E-4,-1.0874782E-3,9.511958E-3],"categories":[],"categories_nodes":[],"categories_segments":[],"categories_sizes":[],"default_left":[0,0,0,0,0,0,0,0,0,0,0,0,0,0,0],"id":12,"left_children":[1,3,5,7,9,11,13,-1,-1,-1,-1,-1,-1,-1,-1],"loss_changes":[3.7216652E1,1.50967045E1,5.6149807E0,6.799057E0,5.9877357E0,4.7171564E0,5.908598E0,0E0,0E0,0E0,0E0,0E0,0E0,0E0,0E0],"parents":[2147483647,0,0,1,1,2,2,3,3,4,4,5,5,6,6],"right_children":[2,4,6,8,10,12,14,-1,-1,-1,-1,-1,-1,-1,-1],"split_conditions":[9.3359E4,8.8E1,8E1,6E0,7.9319E4,1E0,6.4E1,1.6490262E-2,3.3284428E-3,2.0338187E-2,-1.6790307E-3,-4.991208E-3,-3.34957E-4,-1.0874782E-3,9.511958E-3],"split_indices":[4,9,9,9,4,1,3,0,0,0,0,0,0,0,0],"split_type":[0,0,0,0,0,0,0,0,0,0,0,0,0,0,0],"sum_hessian":[1.9225063E2,6.1780556E1,1.3047006E2,5.1953213E1,9.827345E0,1.0308573E2,2.7384336E1,3.397068E0,4.8556145E1,8.576082E0,1.2512628E0,7.184665E1,3.1239082E1,2.1489056E1,5.89528E0],"tree_param":{"num_deleted":"0","num_feature":"12","num_nodes":"15","size_leaf_vector":"1"}},{"base_weights":[-2.9609816E-2,9.810119E-1,-2.4413082E-1,6.6345274E-1,1.8395569E0,3.8206484E-2,-3.6985433E-1,2.8267908E-3,1.20902285E-2,2.6126806E-2,-1.6804603E-3,-4.5280976E-4,1.4633886E-2,8.8068104E-4,-4.584588E-3],"categories":[],"categories_nodes":[],"categories_segments":[],"categories_sizes":[],"default_left":[0,0,0,0,0,0,0,0,0,0,0,0,0,0,0],"id":13,"left_children":[1,3,5,7,9,11,13,-1,-1,-1,-1,-1,-1,-1,-1],"loss_changes":[4.1572224E1,7.935234E0,5.6249723E0,5.0757437E0,1.3637205E1,5.9687467E0,4.481632E0,0E0,0E0,0E0,0E0,0E0,0E0,0E0,0E0],"parents":[2147483647,0,0,1,1,2,2,3,3,4,4,5,5,6,6],"right_children":[2,4,6,8,10,12,14,-1,-1,-1,-1,-1,-1,-1,-1],"split_conditions":[6.1639E4,8.2E1,3E1,7E0,4E1,2.9E1,8.8909E4,2.8267908E-3,1.20902285E-2,2.6126806E-2,-1.6804603E-3,-4.5280976E-4,1.4633886E-2,8.8068104E-4,-4.584588E-3],"split_indices":[4,9,9,10,6,9,4,0,0,0,0,0,0,0,0],"split_type":[0,0,0,0,0,0,0,0,0,0,0,0,0,0,0],"sum_hessian":[1.8964946E2,3.2581757E1,1.570677E2,2.5078478E1,7.5032787E0,4.8607018E1,1.08460686E2,1.5664073E1,9.414405E0,5.19955E0,2.3037286E0,4.6831825E1,1.7751904E0,1.7584936E1,9.087575E1],"tree_param":{"num_deleted":"0","num_feature":"12","num_nodes":"15","size_leaf_vector":"1"}},{"base_weights":[1.6002258E-3,7.779349E-1,-3.0446675E-1,5.663652E-1,1.8329442E0,-5.537512E-1,-1.2858377E-1,3.2752538E-3,1.1169134E-2,2.4413565E-2,3.148228E-3,-6.4774966E-3,1.788692E-3,4.407647E-3,-2.3465331E-3],"categories":[],"categories_nodes":[],"categories_segments":[],"categories_sizes":[],"default_left":[0,0,0,0,0,0,0,0,0,0,0,0,0,0,0],"id":14,"left_children":[1,3,5,7,9,11,13,-1,-1,-1,-1,-1,-1,-1,-1],"loss_changes":[4.5114334E1,1.0945343E1,5.899708E0,5.7047596E0,7.101595E0,3.974617E0,5.0040655E0,0E0,0E0,0E0,0E0,0E0,0E0,0E0,0E0],"parents":[2147483647,0,0,1,1,2,2,3,3,4,4,5,5,6,6],"right_children":[2,4,6,8,10,12,14,-1,-1,-1,-1,-1,-1,-1,-1],"split_conditions":[8.387E4,8.8E1,2.5E1,1.1048E2,5.3E1,6.8E1,1.07464E5,3.2752538E-3,1.1169134E-2,2.4413565E-2,3.148228E-3,-6.4774966E-3,1.788692E-3,4.407647E-3,-2.3465331E-3],"split_indices":[4,9,6,7,3,3,4,0,0,0,0,0,0,0,0],"split_type":[0,0,0,0,0,0,0,0,0,0,0,0,0,0,0],"sum_hessian":[1.8787001E2,5.2687405E1,1.351826E2,4.5166607E1,7.520799E0,5.50335E1,8.01491E1,3.26132E1,1.2553407E1,4.9349084E0,2.5858905E0,4.887807E1,6.155429E0,1.2091303E1,6.805779E1],"tree_param":{"num_deleted":"0","num_feature":"12","num_nodes":"15","size_leaf_vector":"1"}},{"base_weights":[9.65427E-2,8.406043E-1,-3.128819E-1,1.8301373E0,6.257552E-1,-6.3747144E-1,-1.5577818E-1,2.5294973E-2,2.185805E-3,2.261266E-2,5.2572815E-3,-8.492586E-3,-2.5131977E-3,3.057772E-5,-7.126544E-3],"categories":[],"categories_nodes":[],"categories_segments":[],"categories_sizes":[],"default_left":[0,0,0,0,0,0,0,0,0,0,0,0,0,0,0],"id":15,"left_children":[1,3,5,7,9,11,13,-1,-1,-1,-1,-1,-1,-1,-1],"loss_changes":[5.8320625E1,1.3293869E1,6.206794E0,1.2516514E1,8.1885605E0,3.05859E0,7.4899783E0,0E0,0E0,0E0,0E0,0E0,0E0,0E0,0E0],"parents":[2147483647,0,0,1,1,2,2,3,3,4,4,5,5,6,6],"right_children":[2,4,6,8,10,12,14,-1,-1,-1,-1,-1,-1,-1,-1],"split_conditions":[9.8788E4,3.5451E4,1.11285E3,5.3E1,1.2536E2,5.5E1,1.2854E2,2.5294973E-2,2.185805E-3,2.261266E-2,5.2572815E-3,-8.492586E-3,-2.5131977E-3,3.057772E-5,-7.126544E-3],"split_indices":[4,4,8,3,8,3,7,0,0,0,0,0,0,0,0],"split_type":[0,0,0,0,0,0,0,0,0,0,0,0,0,0,0],"sum_hessian":[1.8957959E2,6.6916595E1,1.22662994E2,1.0596039E1,5.6320553E1,3.9009148E1,8.365385E1,6.992107E0,3.6039321E0,2.0007274E0,5.4319824E1,2.4417782E1,1.4591365E1,6.586259E1,1.779126E1],"tree_param":{"num_deleted":"0","num_feature":"12","num_nodes":"15","size_leaf_vector":"1"}},{"base_weights":[2.135113E-2,1.0541766E0,-2.136714E-1,8.231007E-1,1.9061793E0,2.1356599E-1,-3.31247E-1,1.2760154E-2,3.083148E-3,2.6589746E-2,2.03669E-3,8.913961E-3,-1.1617959E-3,-5.9323735E-3,-2.0517115E-3],"categories":[],"categories_nodes":[],"categories_segments":[],"categories_sizes":[],"default_left":[0,0,0,0,0,0,0,0,0,0,0,0,0,0,0],"id":16,"left_children":[1,3,5,7,9,11,13,-1,-1,-1,-1,-1,-1,-1,-1],"loss_changes":[4.5466515E1,5.266197E0,7.739349E0,6.3845634E0,7.977707E0,7.603217E0,3.8455257E0,0E0,0E0,0E0,0E0,0E0,0E0,0E0,0E0],"parents":[2147483647,0,0,1,1,2,2,3,3,4,4,5,5,6,6],"right_children":[2,4,6,8,10,12,14,-1,-1,-1,-1,-1,-1,-1,-1],"split_conditions":[6.1639E4,8.7E1,9.8788E4,2.8E1,5E1,3.2E1,2E1,1.2760154E-2,3.083148E-3,2.6589746E-2,2.03669E-3,8.913961E-3,-1.1617959E-3,-5.9323735E-3,-2.0517115E-3],"split_indices":[4,9,4,6,3,9,6,0,0,0,0,0,0,0,0],"split_type":[0,0,0,0,0,0,0,0,0,0,0,0,0,0,0],"sum_hessian":[1.853796E2,3.3717945E1,1.5166165E2,2.80708E1,5.647144E0,3.2553776E1,1.1910788E2,1.4146133E1,1.3924667E1,3.5261827E0,2.1209612E0,1.0096326E1,2.2457449E1,3.749222E1,8.1615654E1],"tree_param":{"num_deleted":"0","num_feature":"12","num_nodes":"15","size_leaf_vector":"1"}},{"base_weights":[-1.995528E-2,6.1492777E-1,-3.609326E-1,4.5542172E-1,1.5740149E0,-5.122938E-1,-1.4519338E-2,8.972078E-3,7.763951E-4,3.2817006E-2,7.0531946E-3,-7.136191E-3,-5.8533426E-4,-4.091412E-3,2.670761E-3],"categories":[],"categories_nodes":[],"categories_segments":[],"categories_sizes":[],"default_left":[0,0,0,0,0,0,0,0,0,0,0,0,0,0,0],"id":17,"left_children":[1,3,5,7,9,11,13,-1,-1,-1,-1,-1,-1,-1,-1],"loss_changes":[4.0707054E1,9.336264E0,6.4051723E0,9.5690155E0,1.0982365E1,7.7307777E0,4.3561516E0,0E0,0E0,0E0,0E0,0E0,0E0,0E0,0E0],"parents":[2147483647,0,0,1,1,2,2,3,3,4,4,5,5,6,6],"right_children":[2,4,6,8,10,12,14,-1,-1,-1,-1,-1,-1,-1,-1],"split_conditions":[9.8788E4,9E1,1E0,4.1E1,3.878E4,7.1E1,2.5E1,8.972078E-3,7.763951E-4,3.2817006E-2,7.0531946E-3,-7.136191E-3,-5.8533426E-4,-4.091412E-3,2.670761E-3],"split_indices":[4,9,1,9,4,9,6,0,0,0,0,0,0,0,0],"split_type":[0,0,0,0,0,0,0,0,0,0,0,0,0,0,0],"sum_hessian":[1.8601485E2,6.471509E1,1.2129975E2,5.675157E1,7.9635196E0,8.408217E1,3.721758E1,2.5526012E1,3.122556E1,1.7485255E0,6.214994E0,5.7844803E1,2.623737E1,1.5309804E1,2.1907776E1],"tree_param":{"num_deleted":"0","num_feature":"12","num_nodes":"15","size_leaf_vector":"1"}},{"base_weights":[3.6540322E-2,8.1051594E-1,-2.7889982E-1,6.312725E-1,1.6408992E0,-4.297699E-1,-1.9274037E-2,9.432902E-3,2.310594E-3,2.2401955E-2,5.3552137E-4,1.08984E-5,-5.975947E-3,9.532673E-3,-1.4517107E-3],"categories":[],"categories_nodes":[],"categories_segments":[],"categories_sizes":[],"default_left":[0,0,0,0,0,0,0,0,0,0,0,0,0,0,0],"id":18,"left_children":[1,3,5,7,9,11,13,-1,-1,-1,-1,-1,-1,-1,-1],"loss_changes":[4.6184803E1,7.115017E0,5.2593784E0,5.6093216E0,8.533886E0,6.1475754E0,6.3183794E0,0E0,0E0,0E0,0E0,0E0,0E0,0E0,0E0],"parents":[2147483647,0,0,1,1,2,2,3,3,4,4,5,5,6,6],"right_children":[2,4,6,8,10,12,14,-1,-1,-1,-1,-1,-1,-1,-1],"split_conditions":[8.387E4,9E1,5.4E1,1.87712E3,3.7E1,2.6E1,5.6E1,9.432902E-3,2.310594E-3,2.2401955E-2,5.3552137E-4,1.08984E-5,-5.975947E-3,9.532673E-3,-1.4517107E-3],"split_indices":[4,9,3,8,6,9,3,0,0,0,0,0,0,0,0],"split_type":[0,0,0,0,0,0,0,0,0,0,0,0,0,0,0],"sum_hessian":[1.8724521E2,5.376238E1,1.3348283E2,4.5665424E1,8.096952E0,8.400923E1,4.9473602E1,2.4897581E1,2.0767845E1,5.579248E0,2.5177047E0,2.3828184E1,6.018105E1,4.917171E0,4.455643E1],"tree_param":{"num_deleted":"0","num_feature":"12","num_nodes":"15","size_leaf_vector":"1"}},{"base_weights":[1.8883318E-2,6.720612E-1,-3.3522663E-1,1.3307792E0,3.649684E-1,-4.178736E-1,1.122608E-1,1.4612537E-2,-2.4954665E-3,-6.583003E-4,6.68337E-3,-5.015486E-3,-1.0931005E-3,-3.657487E-3,8.08488E-3],"categories":[],"categories_nodes":[],"categories_segments":[],"categories_sizes":[],"default_left":[0,0,0,0,0,0,0,0,0,0,0,0,0,0,0],"id":19,"left_children":[1,3,5,7,9,11,13,-1,-1,-1,-1,-1,-1,-1,-1],"loss_changes":[4.4051052E1,1.305616E1,4.6156616E0,4.675667E0,6.1911426E0,2.642952E0,6.9674435E0,0E0,0E0,0E0,0E0,0E0,0E0,0E0,0E0],"parents":[2147483647,0,0,1,1,2,2,3,3,4,4,5,5,6,6],"right_children":[2,4,6,8,10,12,14,-1,-1,-1,-1,-1,-1,-1,-1],"split_conditions":[9.7572E4,4.6869E4,6E0,1E1,5E0,2.15195E5,5.4E1,1.4612537E-2,-2.4954665E-3,-6.583003E-4,6.68337E-3,-5.015486E-3,-1.0931005E-3,-3.657487E-3,8.08488E-3],"split_indices":[4,4,5,10,10,4,3,0,0,0,0,0,0,0,0],"split_type":[0,0,0,0,0,0,0,0,0,0,0,0,0,0,0],"sum_hessian":[1.8847847E2,6.5943565E1,1.22534904E2,1.990774E1,4.603582E1,1.034878E2,1.9047102E1,1.8459072E1,1.4486682E0,1.934623E1,2.6689592E1,8.091907E1,2.2568735E1,1.1574829E1,7.4722724E0],"tree_param":{"num_deleted":"0","num_feature":"12","num_nodes":"15","size_leaf_vector":"1"}},{"base_weights":[1.7776502E-2,9.220468E-1,-1.936131E-1,6.8872935E-1,1.9024094E0,1.3002186E-1,-3.043558E-1,9.182685E-3,-4.201922E-3,2.4470747E-2,1.1711373E-3,2.5387532E-3,-7.1062455E-3,2.5091309E-3,-4.031288E-3],"categories":[],"categories_nodes":[],"categories_segments":[],"categories_sizes":[],"default_left":[0,0,0,0,0,0,0,0,0,0,0,0,0,0,0],"id":20,"left_children":[1,3,5,7,9,11,13,-1,-1,-1,-1,-1,-1,-1,-1],"loss_changes":[3.6251347E1,6.908148E0,5.5511475E0,8.172256E0,5.8779926E0,4.3353734E0,6.4015465E0,0E0,0E0,0E0,0E0,0E0,0E0,0E0,0E0],"parents":[2147483647,0,0,1,1,2,2,3,3,4,4,5,5,6,6],"right_children":[2,4,6,8,10,12,14,-1,-1,-1,-1,-1,-1,-1,-1],"split_conditions":[6.2327E4,6E0,1.03672E5,9E0,1E0,6.9E1,1.4E1,9.182685E-3,-4.201922E-3,2.4470747E-2,1.1711373E-3,2.5387532E-3,-7.1062455E-3,2.5091309E-3,-4.031288E-3],"split_indices":[4,5,4,10,1,3,9,0,0,0,0,0,0,0,0],"split_type":[0,0,0,0,0,0,0,0,0,0,0,0,0,0,0],"sum_hessian":[1.877115E2,3.4929646E1,1.5278186E2,2.9590014E1,5.3396297E0,3.890669E1,1.1387517E2,2.465792E1,4.9320936E0,3.8073766E0,1.5322529E0,3.4518967E1,4.3877215E0,1.6964743E1,9.691042E1],"tree_param":{"num_deleted":"0","num_feature":"12","num_nodes":"15","size_leaf_vector":"1"}},{"base_weights":[2.2172728E-3,8.910737E-1,-2.068815E-1,1.5849308E0,5.489793E-1,1.3898513E-1,-3.0127314E-1,3.010402E-3,2.0681893E-2,1.1964301E-2,2.3239232E-3,3.0427652E-3,-4.5016906E-3,-5.1127956E-3,-1.7541912E-3],"categories":[],"categories_nodes":[],"categories_segments":[],"categories_sizes":[],"default_left":[0,0,0,0,0,0,0,0,0,0,0,0,0,0,0],"id":21,"left_children":[1,3,5,7,9,11,13,-1,-1,-1,-1,-1,-1,-1,-1],"loss_changes":[3.558772E1,7.78545E0,5.102802E0,6.5198326E0,5.041761E0,3.4402475E0,3.1374187E0,0E0,0E0,0E0,0E0,0E0,0E0,0E0,0E0],"parents":[2147483647,0,0,1,1,2,2,3,3,4,4,5,5,6,6],"right_children":[2,4,6,8,10,12,14,-1,-1,-1,-1,-1,-1,-1,-1],"split_conditions":[6.2327E4,3.5451E4,9.8788E4,2.8453E4,3.4E1,6.3E1,6.154E1,3.010402E-3,2.0681893E-2,1.1964301E-2,2.3239232E-3,3.0427652E-3,-4.5016906E-3,-5.1127956E-3,-1.7541912E-3],"split_indices":[4,4,4,4,9,3,7,0,0,0,0,0,0,0,0],"split_type":[0,0,0,0,0,0,0,0,0,0,0,0,0,0,0],"sum_hessian":[1.8948532E2,3.546517E1,1.5402014E2,1.0511691E1,2.4953482E1,3.2920723E1,1.2109943E2,3.3184323E0,7.1932592E0,7.28198E0,1.7671501E1,2.6085724E1,6.8349986E0,4.4230938E1,7.6868484E1],"tree_param":{"num_deleted":"0","num_feature":"12","num_nodes":"15","size_leaf_vector":"1"}},{"base_weights":[-2.8423812E-2,7.709943E-1,-2.1082321E-1,4.7408128E-1,1.779205E0,-2.899903E-1,2.175624E-1,-1.4102396E-3,8.373674E-3,2.6095927E-2,5.699189E-4,-4.693833E-3,-1.4302204E-3,5.149996E-5,1.47180455E-2],"categories":[],"categories_nodes":[],"categories_segments":[],"categories_sizes":[],"default_left":[0,0,0,0,0,0,0,0,0,0,0,0,0,0,0],"id":22,"left_children":[1,3,5,7,9,11,13,-1,-1,-1,-1,-1,-1,-1,-1],"loss_changes":[2.750402E1,9.648712E0,5.267547E0,6.4731164E0,1.0735117E1,3.3590727E0,6.521698E0,0E0,0E0,0E0,0E0,0E0,0E0,0E0,0E0],"parents":[2147483647,0,0,1,1,2,2,3,3,4,4,5,5,6,6],"right_children":[2,4,6,8,10,12,14,-1,-1,-1,-1,-1,-1,-1,-1],"split_conditions":[6.2327E4,8.7E1,6E0,3.878E4,5E1,1.5936E3,9E1,-1.4102396E-3,8.373674E-3,2.6095927E-2,5.699189E-4,-4.693833E-3,-1.4302204E-3,5.149996E-5,1.47180455E-2],"split_indices":[4,9,5,4,3,8,9,0,0,0,0,0,0,0,0],"split_type":[0,0,0,0,0,0,0,0,0,0,0,0,0,0,0],"sum_hessian":[1.8651004E2,3.4049835E1,1.524602E2,2.7439314E1,6.6105213E0,1.2895242E2,2.3507776E1,1.0415652E1,1.702366E1,4.1124125E0,2.498109E0,5.7082443E1,7.186999E1,2.096188E1,2.5458968E0],"tree_param":{"num_deleted":"0","num_feature":"12","num_nodes":"15","size_leaf_vector":"1"}},{"base_weights":[4.0763363E-2,6.9149226E-1,-2.960229E-1,1.8745524E0,5.124765E-1,-2.0693552E-1,-5.700536E-1,2.2710726E-2,-1.8547551E-3,3.2425812E-3,8.3472915E-3,-4.504739E-3,-4.4683903E-4,1.3253264E-3,-6.547032E-3],"categories":[],"categories_nodes":[],"categories_segments":[],"categories_sizes":[],"default_left":[0,0,0,0,0,0,0,0,0,0,0,0,0,0,0],"id":23,"left_children":[1,3,5,7,9,11,13,-1,-1,-1,-1,-1,-1,-1,-1],"loss_changes":[4.2840523E1,1.3154522E1,3.0287523E0,7.2690086E0,3.323985E0,3.8856091E0,1.9336433E0,0E0,0E0,0E0,0E0,0E0,0E0,0E0,0E0],"parents":[2147483647,0,0,1,1,2,2,3,3,4,4,5,5,6,6],"right_children":[2,4,6,8,10,12,14,-1,-1,-1,-1,-1,-1,-1,-1],"split_conditions":[9.43E4,3.2533E4,1.1502E2,6.5E1,7.1705E4,1.11285E3,2.6E1,2.2710726E-2,-1.8547551E-3,3.2425812E-3,8.3472915E-3,-4.504739E-3,-4.4683903E-4,1.3253264E-3,-6.547032E-3],"split_indices":[4,4,7,3,4,8,3,0,0,0,0,0,0,0,0],"split_type":[0,0,0,0,0,0,0,0,0,0,0,0,0,0,0],"sum_hessian":[1.9354506E2,6.564822E1,1.2789684E2,7.3832355E0,5.8264984E1,9.7843185E1,3.0053658E1,6.10557E0,1.2776654E0,3.80483E1,2.021668E1,3.8411476E1,5.9431705E1,3.1707737E0,2.6882885E1],"tree_param":{"num_deleted":"0","num_feature":"12","num_nodes":"15","size_leaf_vector":"1"}},{"base_weights":[-1.9561214E-4,7.6917887E-1,-1.9065778E-1,5.0995076E-1,1.7935668E0,-5.0367314E-1,-2.3135073E-2,7.905206E-3,-1.3764407E-3,2.6007773E-2,-3.730376E-3,-7.378804E-3,-2.7125818E-3,4.0258435E-3,-1.502193E-3],"categories":[],"categories_nodes":[],"categories_segments":[],"categories_sizes":[],"default_left":[0,0,0,0,0,0,0,0,0,0,0,0,0,0,0],"id":24,"left_children":[1,3,5,7,9,11,13,-1,-1,-1,-1,-1,-1,-1,-1],"loss_changes":[2.7844568E1,9.098099E0,7.975121E0,5.8300753E0,1.3592789E1,2.687519E0,5.4848437E0,0E0,0E0,0E0,0E0,0E0,0E0,0E0,0E0],"parents":[2147483647,0,0,1,1,2,2,3,3,4,4,5,5,6,6],"right_children":[2,4,6,8,10,12,14,-1,-1,-1,-1,-1,-1,-1,-1],"split_conditions":[6.2327E4,8.7E1,3.7E1,6E1,5.1E1,2.9E1,9.8788E4,7.905206E-3,-1.3764407E-3,2.6007773E-2,-3.730376E-3,-7.378804E-3,-2.7125818E-3,4.0258435E-3,-1.502193E-3],"split_indices":[4,9,3,9,3,6,4,0,0,0,0,0,0,0,0],"split_type":[0,0,0,0,0,0,0,0,0,0,0,0,0,0,0],"sum_hessian":[1.8801689E2,3.670561E1,1.5131128E2,3.0488182E1,6.217426E0,5.2049835E1,9.926145E1,2.1118088E1,9.370094E0,4.3837724E0,1.8336532E0,2.4841711E1,2.7208122E1,2.2320883E1,7.694057E1],"tree_param":{"num_deleted":"0","num_feature":"12","num_nodes":"15","size_leaf_vector":"1"}},{"base_weights":[2.687831E-2,1.020646E0,-1.8064842E-1,2.5405204E0,8.0654633E-1,2.4336079E-1,-3.0954662E-1,7.1156025E-3,3.2140184E-2,9.997836E-3,-4.5161233E-3,2.5247442E-2,9.503739E-4,-4.2413394E-3,-5.6610804E-4],"categories":[],"categories_nodes":[],"categories_segments":[],"categories_sizes":[],"default_left":[0,0,0,0,0,0,0,0,0,0,0,0,0,0,0],"id":25,"left_children":[1,3,5,7,9,11,13,-1,-1,-1,-1,-1,-1,-1,-1],"loss_changes":[3.9154667E1,8.622295E0,8.665196E0,2.1278725E0,7.796274E0,1.2347926E1,3.48203E0,0E0,0E0,0E0,0E0,0E0,0E0,0E0,0E0],"parents":[2147483647,0,0,1,1,2,2,3,3,4,4,5,5,6,6],"right_children":[2,4,6,8,10,12,14,-1,-1,-1,-1,-1,-1,-1,-1],"split_conditions":[5.9578E4,8E0,9.8788E4,4E0,5.3E1,1.2536E2,1E0,7.1156025E-3,3.2140184E-2,9.997836E-3,-4.5161233E-3,2.5247442E-2,9.503739E-4,-4.2413394E-3,-5.6610804E-4],"split_indices":[4,9,4,9,6,8,1,0,0,0,0,0,0,0,0],"split_type":[0,0,0,0,0,0,0,0,0,0,0,0,0,0,0],"sum_hessian":[1.879621E2,3.179407E1,1.5616803E2,2.584052E0,2.9210018E1,3.620012E1,1.199679E2,1.2489367E0,1.3351154E0,2.5499044E1,3.7109723E0,1.231796E0,3.4968323E1,8.209818E1,3.7869724E1],"tree_param":{"num_deleted":"0","num_feature":"12","num_nodes":"15","size_leaf_vector":"1"}},{"base_weights":[-2.1704972E-2,6.5706456E-1,-3.0260408E-1,1.40186E0,4.511033E-1,-2.3062943E-1,-6.66604E-1,5.7728807E-3,2.4333213E-2,6.9984845E-3,-9.569886E-4,-4.3251286E-3,8.020012E-4,2.796107E-3,-8.179719E-3],"categories":[],"categories_nodes":[],"categories_segments":[],"categories_sizes":[],"default_left":[0,0,0,0,0,0,0,0,0,0,0,0,0,0,0],"id":26,"left_children":[1,3,5,7,9,11,13,-1,-1,-1,-1,-1,-1,-1,-1],"loss_changes":[3.6061005E1,7.861294E0,3.3495445E0,8.393394E0,6.1671677E0,7.1364317E0,3.3147612E0,0E0,0E0,0E0,0E0,0E0,0E0,0E0,0E0],"parents":[2147483647,0,0,1,1,2,2,3,3,4,4,5,5,6,6],"right_children":[2,4,6,8,10,12,14,-1,-1,-1,-1,-1,-1,-1,-1],"split_conditions":[8.192E4,3.4472E4,1.2854E2,3.0636E4,4E1,8.152E1,1.3E1,5.7728807E-3,2.4333213E-2,6.9984845E-3,-9.569886E-4,-4.3251286E-3,8.020012E-4,2.796107E-3,-8.179719E-3],"split_indices":[4,4,7,4,6,7,9,0,0,0,0,0,0,0,0],"split_type":[0,0,0,0,0,0,0,0,0,0,0,0,0,0,0],"sum_hessian":[1.8708923E2,5.4369846E1,1.3271939E2,1.0520233E1,4.3849613E1,1.1217277E2,2.054662E1,6.713222E0,3.807011E0,2.99467E1,1.3902914E1,6.7766815E1,4.440595E1,2.716749E0,1.782987E1],"tree_param":{"num_deleted":"0","num_feature":"12","num_nodes":"15","size_leaf_vector":"1"}},{"base_weights":[1.1453919E-2,9.3672884E-1,-1.8995324E-1,1.5737836E0,6.073664E-1,1.5935294E-1,-3.1132904E-1,2.9094678E-3,2.0792842E-2,-4.1271234E-3,8.80021E-3,9.310329E-3,-1.4276745E-3,-5.6544268E-3,-1.8708415E-3],"categories":[],"categories_nodes":[],"categories_segments":[],"categories_sizes":[],"default_left":[0,0,0,0,0,0,0,0,0,0,0,0,0,0,0],"id":27,"left_children":[1,3,5,7,9,11,13,-1,-1,-1,-1,-1,-1,-1,-1],"loss_changes":[3.602933E1,6.2953167E0,6.783217E0,6.6251526E0,7.1521406E0,9.83554E0,3.6261997E0,0E0,0E0,0E0,0E0,0E0,0E0,0E0,0E0],"parents":[2147483647,0,0,1,1,2,2,3,3,4,4,5,5,6,6],"right_children":[2,4,6,8,10,12,14,-1,-1,-1,-1,-1,-1,-1,-1],"split_conditions":[5.8722E4,3.4472E4,2.4E1,9.5296E2,3.878E4,1.01382E5,5.357E1,2.9094678E-3,2.0792842E-2,-4.1271234E-3,8.80021E-3,9.310329E-3,-1.4276745E-3,-5.6544268E-3,-1.8708415E-3],"split_indices":[4,4,9,8,4,4,7,0,0,0,0,0,0,0,0],"split_type":[0,0,0,0,0,0,0,0,0,0,0,0,0,0,0],"sum_hessian":[1.913802E2,3.3558735E1,1.5782147E2,1.014941E1,2.3409323E1,4.0617085E1,1.17204384E2,3.31424E0,6.83517E0,4.8289957E0,1.8580328E1,1.084218E1,2.9774904E1,3.7321342E1,7.988305E1],"tree_param":{"num_deleted":"0","num_feature":"12","num_nodes":"15","size_leaf_vector":"1"}},{"base_weights":[6.281019E-2,5.438623E-1,-2.2219299E-1,3.8861188E-1,1.1531832E0,4.8675323E-1,-2.7173924E-1,8.772398E-3,1.4867441E-3,2.3715185E-2,6.0779513E-3,-4.7522257E-3,9.593736E-3,-3.317037E-3,1.6644049E-3],"categories":[],"categories_nodes":[],"categories_segments":[],"categories_sizes":[],"default_left":[0,0,0,0,0,0,0,0,0,0,0,0,0,0,0],"id":28,"left_children":[1,3,5,7,9,11,13,-1,-1,-1,-1,-1,-1,-1,-1],"loss_changes":[2.6508274E1,6.3529606E0,4.402538E0,6.7638655E0,7.9212284E0,4.2292967E0,3.057722E0,0E0,0E0,0E0,0E0,0E0,0E0,0E0,0E0],"parents":[2147483647,0,0,1,1,2,2,3,3,4,4,5,5,6,6],"right_children":[2,4,6,8,10,12,14,-1,-1,-1,-1,-1,-1,-1,-1],"split_conditions":[9.8788E4,8.6E1,6E0,2.6E1,3.878E4,2E1,9E1,8.772398E-3,1.4867441E-3,2.3715185E-2,6.0779513E-3,-4.7522257E-3,9.593736E-3,-3.317037E-3,1.6644049E-3],"split_indices":[4,9,9,9,4,6,9,0,0,0,0,0,0,0,0],"split_type":[0,0,0,0,0,0,0,0,0,0,0,0,0,0,0],"sum_hessian":[1.9146655E2,7.0895294E1,1.2057125E2,5.7804836E1,1.3090461E1,7.2995415E0,1.1327171E2,1.8162052E1,3.9642784E1,3.0125198E0,1.0077941E1,2.402983E0,4.896559E0,9.9850296E1,1.3421414E1],"tree_param":{"num_deleted":"0","num_feature":"12","num_nodes":"15","size_leaf_vector":"1"}},{"base_weights":[6.7381434E-2,8.131932E-1,-2.6130947E-1,6.1138874E-1,1.6875836E0,-4.0397477E-1,-2.5875788E-2,1.4053435E-2,4.0744236E-3,2.0124767E-2,4.121781E-3,2.2204741E-4,-5.6542247E-3,-1.9063185E-3,7.154727E-3],"categories":[],"categories_nodes":[],"categories_segments":[],"categories_sizes":[],"default_left":[0,0,0,0,0,0,0,0,0,0,0,0,0,0,0],"id":29,"left_children":[1,3,5,7,9,11,13,-1,-1,-1,-1,-1,-1,-1,-1],"loss_changes":[4.6568577E1,9.218338E0,4.423545E0,7.323513E0,3.4486713E0,5.6636705E0,6.350836E0,0E0,0E0,0E0,0E0,0E0,0E0,0E0,0E0],"parents":[2147483647,0,0,1,1,2,2,3,3,4,4,5,5,6,6],"right_children":[2,4,6,8,10,12,14,-1,-1,-1,-1,-1,-1,-1,-1],"split_conditions":[8.387E4,8.8E1,5.4E1,1.6E1,6.4619E4,2.8E1,6E0,1.4053435E-2,4.0744236E-3,2.0124767E-2,4.121781E-3,2.2204741E-4,-5.6542247E-3,-1.9063185E-3,7.154727E-3],"split_indices":[4,9,3,9,4,3,5,0,0,0,0,0,0,0,0],"split_type":[0,0,0,0,0,0,0,0,0,0,0,0,0,0,0],"sum_hessian":[1.8809924E2,5.7088745E1,1.310105E2,4.7764236E1,9.324507E0,8.1131516E1,4.9878986E1,8.557907E0,3.920633E1,6.970859E0,2.3536482E0,2.2527447E1,5.8604073E1,4.1417328E1,8.46166E0],"tree_param":{"num_deleted":"0","num_feature":"12","num_nodes":"15","size_leaf_vector":"1"}},{"base_weights":[-8.404338E-2,4.401119E-1,-3.9070165E-1,-6.495319E-1,5.0797015E-1,2.4331382E-1,-4.5682314E-1,-7.868128E-4,-7.960292E-3,8.557047E-3,3.702647E-3,-6.06632E-3,6.357396E-3,-5.104574E-3,4.2189483E-4],"categories":[],"categories_nodes":[],"categories_segments":[],"categories_sizes":[],"default_left":[0,0,0,0,0,0,0,0,0,0,0,0,0,0,0],"id":30,"left_children":[1,3,5,7,9,11,13,-1,-1,-1,-1,-1,-1,-1,-1],"loss_changes":[3.0843449E1,5.572565E0,5.180191E0,3.2167935E-1,2.9061546E0,4.412121E0,2.96142E0,0E0,0E0,0E0,0E0,0E0,0E0,0E0,0E0],"parents":[2147483647,0,0,1,1,2,2,3,3,4,4,5,5,6,6],"right_children":[2,4,6,8,10,12,14,-1,-1,-1,-1,-1,-1,-1,-1],"split_conditions":[9.8788E4,2.1E1,8E0,2.3E1,2.6E1,3E0,9E1,-7.868128E-4,-7.960292E-3,8.557047E-3,3.702647E-3,-6.06632E-3,6.357396E-3,-5.104574E-3,4.2189483E-4],"split_indices":[4,3,9,9,9,10,9,0,0,0,0,0,0,0,0],"split_type":[0,0,0,0,0,0,0,0,0,0,0,0,0,0,0],"sum_hessian":[1.8981842E2,6.990249E1,1.1991593E2,3.5954888E0,6.6307E1,1.1071875E1,1.0884406E2,1.0481776E0,2.5473113E0,1.7330328E1,4.897667E1,3.3248367E0,7.747038E0,9.826006E1,1.0583998E1],"tree_param":{"num_deleted":"0","num_feature":"12","num_nodes":"15","size_leaf_vector":"1"}},{"base_weights":[-3.0497987E-2,4.752687E-1,-3.064598E-1,1.0704578E0,3.6011168E-1,-4.91006E-1,-1.0965357E-1,1.8656475E-2,-4.2299577E-3,-4.1664345E-3,4.382342E-3,-5.8079585E-3,9.25523E-4,6.4238245E-3,-2.3887618E-3],"categories":[],"categories_nodes":[],"categories_segments":[],"categories_sizes":[],"default_left":[0,0,0,0,0,0,0,0,0,0,0,0,0,0,0],"id":31,"left_children":[1,3,5,7,9,11,13,-1,-1,-1,-1,-1,-1,-1,-1],"loss_changes":[2.6871805E1,4.2745295E0,4.4678574E0,1.3276663E1,3.7309365E0,3.4052124E0,6.1333885E0,0E0,0E0,0E0,0E0,0E0,0E0,0E0,0E0],"parents":[2147483647,0,0,1,1,2,2,3,3,4,4,5,5,6,6],"right_children":[2,4,6,8,10,12,14,-1,-1,-1,-1,-1,-1,-1,-1],"split_conditions":[9.3359E4,3.4472E4,1.7258E5,5.3E1,3.878E4,8.7E1,1.4E1,1.8656475E-2,-4.2299577E-3,-4.1664345E-3,4.382342E-3,-5.8079585E-3,9.25523E-4,6.4238245E-3,-2.3887618E-3],"split_indices":[4,4,4,3,4,9,9,0,0,0,0,0,0,0,0],"split_type":[0,0,0,0,0,0,0,0,0,0,0,0,0,0,0],"sum_hessian":[1.904861E2,6.698948E1,1.2349661E2,9.51509E0,5.747439E1,6.296199E1,6.0534622E1,6.046443E0,3.4686475E0,4.8562803E0,5.2618107E1,5.4570213E1,8.391777E0,8.294141E0,5.2240482E1],"tree_param":{"num_deleted":"0","num_feature":"12","num_nodes":"15","size_leaf_vector":"1"}},{"base_weights":[-3.5088312E-2,5.2640414E-1,-3.228479E-1,1.3651505E0,3.2738268E-1,7.58847E-1,-3.7381738E-1,1.0181665E-3,1.6619755E-2,-1.1409848E-3,6.1831814E-3,1.5505298E-2,-4.333283E-3,-4.4180504E-3,2.2215527E-3],"categories":[],"categories_nodes":[],"categories_segments":[],"categories_sizes":[],"default_left":[0,0,0,0,0,0,0,0,0,0,0,0,0,0,0],"id":32,"left_children":[1,3,5,7,9,11,13,-1,-1,-1,-1,-1,-1,-1,-1],"loss_changes":[3.0776802E1,1.03309555E1,7.2229023E0,4.3557243E0,6.9420915E0,6.328985E0,4.9956036E0,0E0,0E0,0E0,0E0,0E0,0E0,0E0,0E0],"parents":[2147483647,0,0,1,1,2,2,3,3,4,4,5,5,6,6],"right_children":[2,4,6,8,10,12,14,-1,-1,-1,-1,-1,-1,-1,-1],"split_conditions":[9.0066E4,3.5451E4,4E0,2.7795E4,4.3E1,1.71702E5,6.9E1,1.0181665E-3,1.6619755E-2,-1.1409848E-3,6.1831814E-3,1.5505298E-2,-4.333283E-3,-4.4180504E-3,2.2215527E-3],"split_indices":[4,4,9,4,3,4,3,0,0,0,0,0,0,0,0],"split_type":[0,0,0,0,0,0,0,0,0,0,0,0,0,0,0],"sum_hessian":[1.8842833E2,6.3565834E1,1.248625E2,1.1066866E1,5.249897E1,4.9937997E0,1.198687E2,2.3610196E0,8.705847E0,2.1095436E1,3.1403534E1,2.8203278E0,2.1734722E0,1.07826675E2,1.2042024E1],"tree_param":{"num_deleted":"0","num_feature":"12","num_nodes":"15","size_leaf_vector":"1"}},{"base_weights":[-2.2876015E-2,5.415048E-1,-3.005232E-1,1.1920785E0,3.6703295E-1,-2.119418E-1,-7.1895134E-1,6.990005E-3,2.3390975E-2,1.1350118E-2,2.1021203E-3,-2.987861E-3,6.0249106E-3,-1.0914005E-3,-9.023132E-3],"categories":[],"categories_nodes":[],"categories_segments":[],"categories_sizes":[],"default_left":[0,0,0,0,0,0,0,0,0,0,0,0,0,0,0],"id":33,"left_children":[1,3,5,7,9,11,13,-1,-1,-1,-1,-1,-1,-1,-1],"loss_changes":[3.0096075E1,6.7525215E0,4.6171455E0,5.689438E0,5.951063E0,7.7915683E0,2.3686457E0,0E0,0E0,0E0,0E0,0E0,0E0,0E0,0E0],"parents":[2147483647,0,0,1,1,2,2,3,3,4,4,5,5,6,6],"right_children":[2,4,6,8,10,12,14,-1,-1,-1,-1,-1,-1,-1,-1],"split_conditions":[9.0066E4,3.5451E4,1.269E2,8.6E1,1.6E1,4.7665E3,2.18967E3,6.990005E-3,2.3390975E-2,1.1350118E-2,2.1021203E-3,-2.987861E-3,6.0249106E-3,-1.0914005E-3,-9.023132E-3],"split_indices":[4,4,7,9,9,8,8,0,0,0,0,0,0,0,0],"split_type":[0,0,0,0,0,0,0,0,0,0,0,0,0,0,0],"sum_hessian":[1.9002477E2,6.2344696E1,1.2768007E2,1.19506E1,5.03941E1,1.06615944E2,2.1064117E1,9.483332E0,2.4672678E0,7.4877386E0,4.290636E1,9.6914894E1,9.7010565E0,5.2382746E0,1.5825844E1],"tree_param":{"num_deleted":"0","num_feature":"12","num_nodes":"15","size_leaf_vector":"1"}},{"base_weights":[-7.0712E-2,4.0954888E-1,-3.6007142E-1,7.2406584E-1,1.3160093E-1,7.309443E-1,-4.1599357E-1,-6.51909E-3,9.080872E-3,-2.5942293E-3,4.397938E-3,1.3720264E-2,-3.9169746E-3,-6.9519924E-3,-2.4931813E-3],"categories":[],"categories_nodes":[],"categories_segments":[],"categories_sizes":[],"default_left":[0,0,0,0,0,0,0,0,0,0,0,0,0,0,0],"id":34,"left_children":[1,3,5,7,9,11,13,-1,-1,-1,-1,-1,-1,-1,-1],"loss_changes":[2.6164303E1,6.0989122E0,7.464329E0,8.952749E0,4.7943654E0,4.916708E0,5.0515175E0,0E0,0E0,0E0,0E0,0E0,0E0,0E0,0E0],"parents":[2147483647,0,0,1,1,2,2,3,3,4,4,5,5,6,6],"right_children":[2,4,6,8,10,12,14,-1,-1,-1,-1,-1,-1,-1,-1],"split_conditions":[9.8788E4,5.6819E4,4E0,2.8453E4,7.3924E4,8.359E1,1.25987E3,-6.51909E-3,9.080872E-3,-2.5942293E-3,4.397938E-3,1.3720264E-2,-3.9169746E-3,-6.9519924E-3,-2.4931813E-3],"split_indices":[4,4,9,4,4,7,8,0,0,0,0,0,0,0,0],"split_type":[0,0,0,0,0,0,0,0,0,0,0,0,0,0,0],"sum_hessian":[1.8621455E2,6.98562E1,1.1635836E2,3.201923E1,3.783697E1,5.084832E0,1.1127353E2,3.4771457E0,2.8542082E1,1.6747103E1,2.1089869E1,3.0951896E0,1.9896423E0,4.040997E1,7.0863556E1],"tree_param":{"num_deleted":"0","num_feature":"12","num_nodes":"15","size_leaf_vector":"1"}},{"base_weights":[8.1048094E-2,5.6896406E-1,-2.3462595E-1,3.6151144E-1,1.0792646E0,-3.4306422E-1,1.7740179E-2,8.024951E-3,2.7704102E-4,1.4839937E-2,3.4894662E-3,-4.2164144E-3,1.3831946E-3,-1.7610752E-3,7.8118495E-3],"categories":[],"categories_nodes":[],"categories_segments":[],"categories_sizes":[],"default_left":[0,0,0,0,0,0,0,0,0,0,0,0,0,0,0],"id":35,"left_children":[1,3,5,7,9,11,13,-1,-1,-1,-1,-1,-1,-1,-1],"loss_changes":[2.9815758E1,7.6549816E0,3.2275796E0,8.152618E0,5.825754E0,3.1746998E0,5.5142035E0,0E0,0E0,0E0,0E0,0E0,0E0,0E0,0E0],"parents":[2147483647,0,0,1,1,2,2,3,3,4,4,5,5,6,6],"right_children":[2,4,6,8,10,12,14,-1,-1,-1,-1,-1,-1,-1,-1],"split_conditions":[9.8788E4,1.1048E2,1E0,5.4063E4,5.2E1,6.8E1,4.9E1,8.024951E-3,2.7704102E-4,1.4839937E-2,3.4894662E-3,-4.2164144E-3,1.3831946E-3,-1.7610752E-3,7.8118495E-3],"split_indices":[4,7,1,4,3,3,6,0,0,0,0,0,0,0,0],"split_type":[0,0,0,0,0,0,0,0,0,0,0,0,0,0,0],"sum_hessian":[1.9171393E2,7.499573E1,1.1671819E2,5.453431E1,2.046142E1,8.138765E1,3.5330547E1,2.2890385E1,3.1643925E1,1.2501391E1,7.9600286E0,7.007351E1,1.1314138E1,2.8789799E1,6.5407467E0],"tree_param":{"num_deleted":"0","num_feature":"12","num_nodes":"15","size_leaf_vector":"1"}},{"base_weights":[2.1047223E-2,8.217879E-1,-1.875856E-1,5.768458E-1,1.622851E0,2.6727176E-1,-3.9320186E-1,1.2339343E-3,8.710913E-3,2.3922045E-2,-3.0798395E-4,1.6664321E-3,1.8697634E-2,-6.475552E-3,-2.4050325E-3],"categories":[],"categories_nodes":[],"categories_segments":[],"categories_sizes":[],"default_left":[0,0,0,0,0,0,0,0,0,0,0,0,0,0,0],"id":36,"left_children":[1,3,5,7,9,11,13,-1,-1,-1,-1,-1,-1,-1,-1],"loss_changes":[3.1992678E1,6.8296165E0,1.4321289E1,4.143674E0,1.1163111E1,7.4152117E0,3.9257507E0,0E0,0E0,0E0,0E0,0E0,0E0,0E0,0E0],"parents":[2147483647,0,0,1,1,2,2,3,3,4,4,5,5,6,6],"right_children":[2,4,6,8,10,12,14,-1,-1,-1,-1,-1,-1,-1,-1],"split_conditions":[6.2327E4,8.7E1,3E1,3.878E4,5E1,2.9E1,1.23875E3,1.2339343E-3,8.710913E-3,2.3922045E-2,-3.0798395E-4,1.6664321E-3,1.8697634E-2,-6.475552E-3,-2.4050325E-3],"split_indices":[4,9,9,4,3,9,8,0,0,0,0,0,0,0,0],"split_type":[0,0,0,0,0,0,0,0,0,0,0,0,0,0,0],"sum_hessian":[1.8958046E2,3.8577938E1,1.5100252E2,3.0861485E1,7.716455E0,4.6916203E1,1.0408631E2,1.2703651E1,1.8157833E1,4.961511E0,2.7549438E0,4.518293E1,1.7332741E0,3.7830486E1,6.625582E1],"tree_param":{"num_deleted":"0","num_feature":"12","num_nodes":"15","size_leaf_vector":"1"}},{"base_weights":[-2.0942403E-2,4.6892357E-1,-3.3764097E-1,2.1424775E-1,9.315378E-1,-4.13442E-1,4.463808E-2,5.854847E-3,-2.0651384E-3,1.159454E-2,-1.7611941E-3,-5.395078E-3,-1.2656535E-3,-3.6095716E-3,6.120479E-3],"categories":[],"categories_nodes":[],"categories_segments":[],"categories_sizes":[],"default_left":[0,0,0,0,0,0,0,0,0,0,0,0,0,0,0],"id":37,"left_children":[1,3,5,7,9,11,13,-1,-1,-1,-1,-1,-1,-1,-1],"loss_changes":[3.0138971E1,8.789612E0,3.4363394E0,8.010211E0,6.967716E0,3.4951077E0,4.920484E0,0E0,0E0,0E0,0E0,0E0,0E0,0E0,0E0],"parents":[2147483647,0,0,1,1,2,2,3,3,4,4,5,5,6,6],"right_children":[2,4,6,8,10,12,14,-1,-1,-1,-1,-1,-1,-1,-1],"split_conditions":[9.8788E4,6.9E1,6E0,3.5E1,6.3E1,1E0,8.966E1,5.854847E-3,-2.0651384E-3,1.159454E-2,-1.7611941E-3,-5.395078E-3,-1.2656535E-3,-3.6095716E-3,6.120479E-3],"split_indices":[4,9,5,9,3,1,7,0,0,0,0,0,0,0,0],"split_type":[0,0,0,0,0,0,0,0,0,0,0,0,0,0,0],"sum_hessian":[1.9224916E2,7.5298134E1,1.1695103E2,4.950696E1,2.5791176E1,9.753047E1,1.9420557E1,2.6093363E1,2.3413599E1,2.1351116E1,4.4400597E0,6.714393E1,3.0386538E1,1.1537316E1,7.88324E0],"tree_param":{"num_deleted":"0","num_feature":"12","num_nodes":"15","size_leaf_vector":"1"}},{"base_weights":[2.633774E-2,1.0290619E0,-1.6910551E-1,1.8410734E0,7.9926044E-1,1.8490162E-1,-2.9858908E-1,2.0505337E-2,6.3405107E-3,1.8447744E-2,6.145774E-3,4.4186666E-4,1.4305117E-2,-6.991962E-3,-1.9489931E-3],"categories":[],"categories_nodes":[],"categories_segments":[],"categories_sizes":[],"default_left":[0,0,0,0,0,0,0,0,0,0,0,0,0,0,0],"id":38,"left_children":[1,3,5,7,9,11,13,-1,-1,-1,-1,-1,-1,-1,-1],"loss_changes":[3.7336704E1,4.3267975E0,7.368952E0,2.387619E-1,3.8838978E0,7.5346937E0,4.7324038E0,0E0,0E0,0E0,0E0,0E0,0E0,0E0,0E0],"parents":[2147483647,0,0,1,1,2,2,3,3,4,4,5,5,6,6],"right_children":[2,4,6,8,10,12,14,-1,-1,-1,-1,-1,-1,-1,-1],"split_conditions":[5.4063E4,2E0,9.7572E4,4.6029E4,8E0,1E1,6.5352E2,2.0505337E-2,6.3405107E-3,1.8447744E-2,6.145774E-3,4.4186666E-4,1.4305117E-2,-6.991962E-3,-1.9489931E-3],"split_indices":[4,10,4,4,9,10,8,0,0,0,0,0,0,0,0],"split_type":[0,0,0,0,0,0,0,0,0,0,0,0,0,0,0],"sum_hessian":[1.8862907E2,3.0073141E1,1.5855592E2,5.086884E0,2.4986258E1,4.234822E1,1.1620771E2,3.739171E0,1.3477131E0,2.401605E0,2.2584652E1,3.8980156E1,3.3680642E0,2.2712902E1,9.3494804E1],"tree_param":{"num_deleted":"0","num_feature":"12","num_nodes":"15","size_leaf_vector":"1"}},{"base_weights":[-1.4902502E-2,8.8528323E-1,-2.5737393E-1,6.0308295E-1,1.9340333E0,3.542372E-2,-3.8817212E-1,-1.1254833E-3,9.73467E-3,2.7359448E-2,2.708815E-3,-7.5826584E-4,1.0040027E-2,-8.066247E-3,-2.6807534E-3],"categories":[],"categories_nodes":[],"categories_segments":[],"categories_sizes":[],"default_left":[0,0,0,0,0,0,0,0,0,0,0,0,0,0,0],"id":39,"left_children":[1,3,5,7,9,11,13,-1,-1,-1,-1,-1,-1,-1,-1],"loss_changes":[4.0359035E1,1.04471245E1,5.5906343E0,8.690418E0,9.751102E0,5.020039E0,4.8463974E0,0E0,0E0,0E0,0E0,0E0,0E0,0E0,0E0],"parents":[2147483647,0,0,1,1,2,2,3,3,4,4,5,5,6,6],"right_children":[2,4,6,8,10,12,14,-1,-1,-1,-1,-1,-1,-1,-1],"split_conditions":[6.0903E4,6E0,1.15101E5,2E1,3.5E1,1E1,1.45209E5,-1.1254833E-3,9.73467E-3,2.7359448E-2,2.708815E-3,-7.5826584E-4,1.0040027E-2,-8.066247E-3,-2.6807534E-3],"split_indices":[4,5,4,6,6,10,4,0,0,0,0,0,0,0,0],"split_type":[0,0,0,0,0,0,0,0,0,0,0,0,0,0,0],"sum_hessian":[1.8286086E2,3.8240448E1,1.446204E2,3.1373451E1,6.8669977E0,4.4881138E1,9.973927E1,1.0937286E1,2.0436163E1,4.1978903E0,2.6691074E0,4.1083973E1,3.7971625E0,2.0967134E1,7.877214E1],"tree_param":{"num_deleted":"0","num_feature":"12","num_nodes":"15","size_leaf_vector":"1"}},{"base_weights":[-6.3703395E-2,4.749356E-1,-4.0251288E-1,8.345976E-2,6.340121E-1,-5.66244E-1,-1.423297E-1,-3.819928E-3,9.055314E-3,-1.3674093E-4,9.247649E-3,-6.257913E-3,-8.853102E-4,-3.0892012E-3,5.9301476E-3],"categories":[],"categories_nodes":[],"categories_segments":[],"categories_sizes":[],"default_left":[0,0,0,0,0,0,0,0,0,0,0,0,0,0,0],"id":40,"left_children":[1,3,5,7,9,11,13,-1,-1,-1,-1,-1,-1,-1,-1],"loss_changes":[3.498971E1,4.560793E0,4.9289474E0,8.977449E0,9.90461E0,1.988184E0,5.9107523E0,0E0,0E0,0E0,0E0,0E0,0E0,0E0,0E0],"parents":[2147483647,0,0,1,1,2,2,3,3,4,4,5,5,6,6],"right_children":[2,4,6,8,10,12,14,-1,-1,-1,-1,-1,-1,-1,-1],"split_conditions":[9.8788E4,1E0,5.4E1,9.784E1,3.7E1,8.9E1,6E0,-3.819928E-3,9.055314E-3,-1.3674093E-4,9.247649E-3,-6.257913E-3,-8.853102E-4,-3.0892012E-3,5.9301476E-3],"split_indices":[4,2,3,7,3,9,5,0,0,0,0,0,0,0,0],"split_type":[0,0,0,0,0,0,0,0,0,0,0,0,0,0,0],"sum_hessian":[1.8968114E2,7.30865E1,1.1659463E2,2.1558138E1,5.1528366E1,7.083956E1,4.5755066E1,1.4106463E1,7.451675E0,1.6260084E1,3.526828E1,6.271243E1,8.127131E0,3.777674E1,7.9783278E0],"tree_param":{"num_deleted":"0","num_feature":"12","num_nodes":"15","size_leaf_vector":"1"}},{"base_weights":[-1.730082E-2,4.7397366E-1,-3.113008E-1,-6.250101E-1,5.3625786E-1,-2.1846493E-1,-6.1354405E-1,-6.1830383E-4,-7.772691E-3,-3.1248191E-3,6.1235875E-3,-6.5423683E-3,-1.2411687E-3,-8.792287E-3,-2.7677964E-3],"categories":[],"categories_nodes":[],"categories_segments":[],"categories_sizes":[],"default_left":[0,0,0,0,0,0,0,0,0,0,0,0,0,0,0],"id":41,"left_children":[1,3,5,7,9,11,13,-1,-1,-1,-1,-1,-1,-1,-1],"loss_changes":[2.783062E1,5.274067E0,3.2473774E0,3.2338488E-1,4.6365776E0,3.773098E0,2.2408457E0,0E0,0E0,0E0,0E0,0E0,0E0,0E0,0E0],"parents":[2147483647,0,0,1,1,2,2,3,3,4,4,5,5,6,6],"right_children":[2,4,6,8,10,12,14,-1,-1,-1,-1,-1,-1,-1,-1],"split_conditions":[9.43E4,1.627E1,3.88544E3,3.2E1,2.2E1,1.18474E5,4.9E1,-6.1830383E-4,-7.772691E-3,-3.1248191E-3,6.1235875E-3,-6.5423683E-3,-1.2411687E-3,-8.792287E-3,-2.7677964E-3],"split_indices":[4,7,8,9,3,4,6,0,0,0,0,0,0,0,0],"split_type":[0,0,0,0,0,0,0,0,0,0,0,0,0,0,0],"sum_hessian":[1.9066496E2,7.115414E1,1.1951083E2,3.331746E0,6.782239E1,9.274609E1,2.6764736E1,1.0083013E0,2.3234448E0,5.3252015E0,6.249719E1,1.5450322E1,7.729578E1,1.4060848E1,1.2703888E1],"tree_param":{"num_deleted":"0","num_feature":"12","num_nodes":"15","size_leaf_vector":"1"}},{"base_weights":[-3.3383712E-2,6.433404E-1,-2.18484E-1,1.2201649E0,4.2470738E-1,5.600811E-1,-2.5008637E-1,1.8087786E-2,-1.3509534E-3,-1.3790296E-3,7.4961386E-3,1.046396E-2,-6.345954E-3,-3.2369506E-3,8.8628306E-4],"categories":[],"categories_nodes":[],"categories_segments":[],"categories_sizes":[],"default_left":[0,0,0,0,0,0,0,0,0,0,0,0,0,0,0],"id":42,"left_children":[1,3,5,7,9,11,13,-1,-1,-1,-1,-1,-1,-1,-1],"loss_changes":[2.3683924E1,4.6046944E0,3.7896957E0,8.724972E0,5.768322E0,4.204985E0,3.5999222E0,0E0,0E0,0E0,0E0,0E0,0E0,0E0,0E0],"parents":[2147483647,0,0,1,1,2,2,3,3,4,4,5,5,6,6],"right_children":[2,4,6,8,10,12,14,-1,-1,-1,-1,-1,-1,-1,-1],"split_conditions":[6.2327E4,3.2533E4,3E0,5.3E1,4.4309E4,9.831E1,8.4E1,1.8087786E-2,-1.3509534E-3,-1.3790296E-3,7.4961386E-3,1.046396E-2,-6.345954E-3,-3.2369506E-3,8.8628306E-4],"split_indices":[4,4,9,3,4,7,9,0,0,0,0,0,0,0,0],"split_type":[0,0,0,0,0,0,0,0,0,0,0,0,0,0,0],"sum_hessian":[1.8695322E2,3.962159E1,1.4733163E2,9.631006E0,2.9990585E1,5.0946884E0,1.4223694E2,6.4813886E0,3.149618E0,1.1189804E1,1.8800781E1,3.7089932E0,1.3856955E0,1.1688098E2,2.535596E1],"tree_param":{"num_deleted":"0","num_feature":"12","num_nodes":"15","size_leaf_vector":"1"}},{"base_weights":[3.7671335E-2,6.2552124E-1,-3.4734052E-1,9.396184E-1,3.4502354E-1,6.0516745E-1,-3.9114675E-1,1.3152549E-2,5.9527927E-3,1.02787735E-2,5.0357287E-4,-6.243483E-3,1.1726053E-2,-6.073081E-3,-2.5985264E-3],"categories":[],"categories_nodes":[],"categories_segments":[],"categories_sizes":[],"default_left":[0,0,0,0,0,0,0,0,0,0,0,0,0,0,0],"id":43,"left_children":[1,3,5,7,9,11,13,-1,-1,-1,-1,-1,-1,-1,-1],"loss_changes":[4.228686E1,6.1882935E0,4.9500275E0,3.6524086E0,8.123167E0,4.471104E0,2.9243393E0,0E0,0E0,0E0,0E0,0E0,0E0,0E0,0E0],"parents":[2147483647,0,0,1,1,2,2,3,3,4,4,5,5,6,6],"right_children":[2,4,6,8,10,12,14,-1,-1,-1,-1,-1,-1,-1,-1],"split_conditions":[9.8788E4,5.5573E4,3E0,1E0,2.6E1,3.8E1,1.30212E3,1.3152549E-2,5.9527927E-3,1.02787735E-2,5.0357287E-4,-6.243483E-3,1.1726053E-2,-6.073081E-3,-2.5985264E-3],"split_indices":[4,4,9,11,9,3,8,0,0,0,0,0,0,0,0],"split_type":[0,0,0,0,0,0,0,0,0,0,0,0,0,0,0],"sum_hessian":[1.8487788E2,7.291855E1,1.1195934E2,3.329051E1,3.962804E1,4.359223E0,1.0760012E2,1.4573146E1,1.8717361E1,1.1195512E1,2.8432531E1,1.344875E0,3.0143478E0,3.92892E1,6.831091E1],"tree_param":{"num_deleted":"0","num_feature":"12","num_nodes":"15","size_leaf_vector":"1"}},{"base_weights":[-2.064281E-3,5.1278037E-1,-2.4051824E-1,9.9695706E-1,2.4934699E-1,-3.7963226E-1,7.1545556E-2,-2.2664634E-3,1.3674837E-2,1.652095E-4,1.1220425E-2,-6.2031895E-3,-1.8951268E-3,6.0004145E-3,-2.0620963E-3],"categories":[],"categories_nodes":[],"categories_segments":[],"categories_sizes":[],"default_left":[0,0,0,0,0,0,0,0,0,0,0,0,0,0,0],"id":44,"left_children":[1,3,5,7,9,11,13,-1,-1,-1,-1,-1,-1,-1,-1],"loss_changes":[2.3203949E1,7.382782E0,5.634858E0,9.717087E0,8.12561E0,3.9780197E0,6.0937676E0,0E0,0E0,0E0,0E0,0E0,0E0,0E0,0E0],"parents":[2147483647,0,0,1,1,2,2,3,3,4,4,5,5,6,6],"right_children":[2,4,6,8,10,12,14,-1,-1,-1,-1,-1,-1,-1,-1],"split_conditions":[8.192E4,1.9E1,1E0,3.2E1,8.7E1,1.60902E3,3E1,-2.2664634E-3,1.3674837E-2,1.652095E-4,1.1220425E-2,-6.2031895E-3,-1.8951268E-3,6.0004145E-3,-2.0620963E-3],"split_indices":[4,6,1,3,9,8,9,0,0,0,0,0,0,0,0],"split_type":[0,0,0,0,0,0,0,0,0,0,0,0,0,0,0],"sum_hessian":[1.8700381E2,5.883122E1,1.2817259E2,1.9749039E1,3.908218E1,8.850271E1,3.9669884E1,4.680563E0,1.5068476E1,3.16557E1,7.4264784E0,3.805863E1,5.0444073E1,1.3266624E1,2.6403261E1],"tree_param":{"num_deleted":"0","num_feature":"12","num_nodes":"15","size_leaf_vector":"1"}},{"base_weights":[8.561495E-2,6.088782E-1,-2.2095378E-1,2.2976424E-1,7.869588E-1,-3.1046388E-1,2.2066912E-1,7.1558347E-3,-2.91592E-3,9.562922E-3,3.0242623E-4,-3.956619E-3,1.0724294E-3,-2.9670517E-3,7.821702E-3],"categories":[],"categories_nodes":[],"categories_segments":[],"categories_sizes":[],"default_left":[0,0,0,0,0,0,0,0,0,0,0,0,0,0,0],"id":45,"left_children":[1,3,5,7,9,11,13,-1,-1,-1,-1,-1,-1,-1,-1],"loss_changes":[3.0364422E1,4.537323E0,4.794748E0,6.223609E0,6.011112E0,3.5950851E0,6.2553916E0,0E0,0E0,0E0,0E0,0E0,0E0,0E0,0E0],"parents":[2147483647,0,0,1,1,2,2,3,3,4,4,5,5,6,6],"right_children":[2,4,6,8,10,12,14,-1,-1,-1,-1,-1,-1,-1,-1],"split_conditions":[9.2384E4,5.414E1,6.6E1,6E0,6.5E1,8.5E1,1.75774E5,7.1558347E-3,-2.91592E-3,9.562922E-3,3.0242623E-4,-3.956619E-3,1.0724294E-3,-2.9670517E-3,7.821702E-3],"split_indices":[4,7,3,10,3,9,4,0,0,0,0,0,0,0,0],"split_type":[0,0,0,0,0,0,0,0,0,0,0,0,0,0,0],"sum_hessian":[1.8744667E2,6.8885E1,1.1856166E2,2.2747765E1,4.6137238E1,9.88278E1,1.9733866E1,1.1582353E1,1.1165412E1,3.7485275E1,8.651965E0,8.212903E1,1.669877E1,1.0515935E1,9.217931E0],"tree_param":{"num_deleted":"0","num_feature":"12","num_nodes":"15","size_leaf_vector":"1"}},{"base_weights":[9.9602565E-2,9.411485E-1,-1.272709E-1,-3.6990787E-3,1.0127224E0,-2.897454E-1,1.4921953E-1,8.85149E-3,2.1926295E-2,-5.776291E-3,-6.217769E-4,-3.219691E-4,5.6630764E-3],"categories":[],"categories_nodes":[],"categories_segments":[],"categories_sizes":[],"default_left":[0,0,0,0,0,0,0,0,0,0,0,0,0],"id":46,"left_children":[1,3,5,-1,7,9,11,-1,-1,-1,-1,-1,-1],"loss_changes":[3.6002132E1,4.130665E0,6.732793E0,0E0,3.8126526E0,6.131188E0,4.2387147E0,0E0,0E0,0E0,0E0,0E0,0E0],"parents":[2147483647,0,0,1,1,2,2,4,4,5,5,6,6],"right_children":[2,4,6,-1,8,10,12,-1,-1,-1,-1,-1,-1],"split_conditions":[6.2327E4,2.1E1,5.4E1,-3.6990787E-3,6.0098E4,7.213E1,7.4E1,8.85149E-3,2.1926295E-2,-5.776291E-3,-6.217769E-4,-3.219691E-4,5.6630764E-3],"split_indices":[4,3,3,0,4,7,9,0,0,0,0,0,0],"split_type":[0,0,0,0,0,0,0,0,0,0,0,0,0],"sum_hessian":[1.8694005E2,3.9027245E1,1.4791281E2,1.804528E0,3.7222713E1,9.313551E1,5.4777294E1,3.5170242E1,2.0524719E0,4.043945E1,5.269606E1,3.8816498E1,1.5960799E1],"tree_param":{"num_deleted":"0","num_feature":"12","num_nodes":"13","size_leaf_vector":"1"}},{"base_weights":[1.13428915E-2,5.603264E-1,-3.2897294E-1,4.080578E-1,1.351161E0,-4.3267667E-1,-3.4618832E-2,-5.6464016E-3,4.9638012E-3,1.7433757E-2,-6.720903E-3,-5.7120495E-3,-1.296567E-3,-4.9330266E-3,3.807319E-3],"categories":[],"categories_nodes":[],"categories_segments":[],"categories_sizes":[],"default_left":[0,0,0,0,0,0,0,0,0,0,0,0,0,0,0],"id":47,"left_children":[1,3,5,7,9,11,13,-1,-1,-1,-1,-1,-1,-1,-1],"loss_changes":[3.537044E1,8.172001E0,3.5532522E0,5.622059E0,1.0109724E1,3.550745E0,6.1967306E0,0E0,0E0,0E0,0E0,0E0,0E0,0E0,0E0],"parents":[2147483647,0,0,1,1,2,2,3,3,4,4,5,5,6,6],"right_children":[2,4,6,8,10,12,14,-1,-1,-1,-1,-1,-1,-1,-1],"split_conditions":[9.43E4,8.9E1,7.4E1,2.2E1,7.9319E4,1E0,4.5E1,-5.6464016E-3,4.9638012E-3,1.7433757E-2,-6.720903E-3,-5.7120495E-3,-1.296567E-3,-4.9330266E-3,3.807319E-3],"split_indices":[4,9,9,3,4,1,3,0,0,0,0,0,0,0,0],"split_type":[0,0,0,0,0,0,0,0,0,0,0,0,0,0,0],"sum_hessian":[1.8733446E2,7.144149E1,1.1589297E2,6.1178135E1,1.0263354E1,8.535254E1,3.0540428E1,4.6437163E0,5.653442E1,8.712696E0,1.5506581E0,5.7967255E1,2.7385284E1,1.4423957E1,1.611647E1],"tree_param":{"num_deleted":"0","num_feature":"12","num_nodes":"15","size_leaf_vector":"1"}},{"base_weights":[6.809138E-2,6.3693523E-1,-1.8763135E-1,1.1454507E0,3.1488198E-1,1.515006E-1,-3.436513E-1,4.9448027E-3,1.818309E-2,-6.970593E-3,4.52822E-3,-1.888027E-3,6.255476E-3,-5.56642E-3,-1.2931031E-3],"categories":[],"categories_nodes":[],"categories_segments":[],"categories_sizes":[],"default_left":[0,0,0,0,0,0,0,0,0,0,0,0,0,0,0],"id":48,"left_children":[1,3,5,7,9,11,13,-1,-1,-1,-1,-1,-1,-1,-1],"loss_changes":[2.8185816E1,9.475958E0,7.135632E0,9.136036E0,5.6413593E0,7.0351343E0,4.12799E0,0E0,0E0,0E0,0E0,0E0,0E0,0E0,0E0],"parents":[2147483647,0,0,1,1,2,2,3,3,4,4,5,5,6,6],"right_children":[2,4,6,8,10,12,14,-1,-1,-1,-1,-1,-1,-1,-1],"split_conditions":[8.192E4,1.28007E3,3E1,6.6924E2,5.09E1,2.30499E3,6.7E1,4.9448027E-3,1.818309E-2,-6.970593E-3,4.52822E-3,-1.888027E-3,6.255476E-3,-5.56642E-3,-1.2931031E-3],"split_indices":[4,8,9,8,7,8,9,0,0,0,0,0,0,0,0],"split_type":[0,0,0,0,0,0,0,0,0,0,0,0,0,0,0],"sum_hessian":[1.9194025E2,5.9064083E1,1.3287616E2,2.191075E1,3.7153336E1,4.1877758E1,9.0998405E1,1.2018298E1,9.892452E0,3.9706807E0,3.3182655E1,2.472802E1,1.714974E1,4.4841953E1,4.6156452E1],"tree_param":{"num_deleted":"0","num_feature":"12","num_nodes":"15","size_leaf_vector":"1"}},{"base_weights":[1.8745292E-2,3.8912725E-1,-2.6469487E-1,-5.6070334E-1,4.5173985E-1,-6.9787556E-1,-4.2567797E-2,2.3085524E-3,-8.560174E-3,5.586009E-3,-1.2192404E-3,-7.278502E-4,-8.177761E-3,1.6271973E-2,-1.3946191E-3],"categories":[],"categories_nodes":[],"categories_segments":[],"categories_sizes":[],"default_left":[0,0,0,0,0,0,0,0,0,0,0,0,0,0,0],"id":49,"left_children":[1,3,5,7,9,11,13,-1,-1,-1,-1,-1,-1,-1,-1],"loss_changes":[2.0196417E1,5.2119694E0,1.0460419E1,1.5072753E0,4.897299E0,2.7052956E0,1.2058915E1,0E0,0E0,0E0,0E0,0E0,0E0,0E0,0E0],"parents":[2147483647,0,0,1,1,2,2,3,3,4,4,5,5,6,6],"right_children":[2,4,6,8,10,12,14,-1,-1,-1,-1,-1,-1,-1,-1],"split_conditions":[1.03672E5,2.1E1,1.1298E3,1E0,5.1E1,2E0,3.248E1,2.3085524E-3,-8.560174E-3,5.586009E-3,-1.2192404E-3,-7.278502E-4,-8.177761E-3,1.6271973E-2,-1.3946191E-3],"split_indices":[4,3,8,2,6,5,7,0,0,0,0,0,0,0,0],"split_type":[0,0,0,0,0,0,0,0,0,0,0,0,0,0,0],"sum_hessian":[1.9040028E2,8.237928E1,1.08020996E2,4.602618E0,7.7776665E1,3.5889454E1,7.2131546E1,1.3098837E0,3.2927344E0,6.558573E1,1.2190932E1,6.034768E0,2.9854685E1,3.0899105E0,6.904163E1],"tree_param":{"num_deleted":"0","num_feature":"12","num_nodes":"15","size_leaf_vector":"1"}},{"base_weights":[-2.6951555E-2,6.690705E-1,-2.1352433E-1,4.811756E-1,1.2886432E0,6.8950015E-1,-2.4748649E-1,1.117508E-2,2.737284E-3,-2.211798E-3,1.588405E-2,1.7236037E-2,-2.7624085E-3,1.1901182E-4,-3.3013867E-3],"categories":[],"categories_nodes":[],"categories_segments":[],"categories_sizes":[],"default_left":[0,0,0,0,0,0,0,0,0,0,0,0,0,0,0],"id":50,"left_children":[1,3,5,7,9,11,13,-1,-1,-1,-1,-1,-1,-1,-1],"loss_changes":[2.451085E1,4.02598E0,4.7323127E0,3.9471316E0,4.284707E0,6.1240425E0,3.0929613E0,0E0,0E0,0E0,0E0,0E0,0E0,0E0,0E0],"parents":[2147483647,0,0,1,1,2,2,3,3,4,4,5,5,6,6],"right_children":[2,4,6,8,10,12,14,-1,-1,-1,-1,-1,-1,-1,-1],"split_conditions":[6.2327E4,6E0,3E0,2.4E1,3.0636E4,7E1,9.8788E4,1.117508E-2,2.737284E-3,-2.211798E-3,1.588405E-2,1.7236037E-2,-2.7624085E-3,1.1901182E-4,-3.3013867E-3],"split_indices":[4,5,9,9,4,7,4,0,0,0,0,0,0,0,0],"split_type":[0,0,0,0,0,0,0,0,0,0,0,0,0,0,0],"sum_hessian":[1.8664992E2,3.8909466E1,1.4774045E2,3.121858E1,7.690888E0,4.6554E0,1.4308505E2,6.596681E0,2.4621899E1,1.317438E0,6.37345E0,1.8691691E0,2.7862306E0,3.4782627E1,1.0830243E2],"tree_param":{"num_deleted":"0","num_feature":"12","num_nodes":"15","size_leaf_vector":"1"}},{"base_weights":[3.4885988E-2,3.975362E-1,-2.1179621E-1,1.1134541E0,2.085342E-1,-3.223993E-1,1.9930814E-1,6.16824E-3,2.0902913E-2,2.083424E-4,9.698625E-3,1.4863738E-3,-4.4468055E-3,-4.900511E-3,7.738882E-3],"categories":[],"categories_nodes":[],"categories_segments":[],"categories_sizes":[],"default_left":[0,0,0,0,0,0,0,0,0,0,0,0,0,0,0],"id":51,"left_children":[1,3,5,7,9,11,13,-1,-1,-1,-1,-1,-1,-1,-1],"loss_changes":[1.7287214E1,1.034881E1,5.297856E0,6.522209E0,8.996319E0,5.312316E0,1.0289368E1,0E0,0E0,0E0,0E0,0E0,0E0,0E0,0E0],"parents":[2147483647,0,0,1,1,2,2,3,3,4,4,5,5,6,6],"right_children":[2,4,6,8,10,12,14,-1,-1,-1,-1,-1,-1,-1,-1],"split_conditions":[9.8788E4,1.3E1,7.9E1,1.1048E2,9E0,1.4E1,4.5E1,6.16824E-3,2.0902913E-2,2.083424E-4,9.698625E-3,1.4863738E-3,-4.4468055E-3,-4.900511E-3,7.738882E-3],"split_indices":[4,6,9,7,10,9,3,0,0,0,0,0,0,0,0],"split_type":[0,0,0,0,0,0,0,0,0,0,0,0,0,0,0],"sum_hessian":[1.9129984E2,7.719827E1,1.1410156E2,1.5102082E1,6.209619E1,9.008182E1,2.4019743E1,1.1093518E1,4.008564E0,5.0638905E1,1.1457289E1,1.8521208E1,7.156061E1,1.0986125E1,1.3033619E1],"tree_param":{"num_deleted":"0","num_feature":"12","num_nodes":"15","size_leaf_vector":"1"}},{"base_weights":[5.0249446E-2,9.442579E-1,-1.6168544E-1,1.6008582E0,5.438473E-1,-2.5977224E-1,1.7706406E-1,2.1102827E-2,4.2363373E-3,-3.5211826E-3,8.329661E-3,-4.565839E-3,-5.389421E-4,-4.1427193E-3,6.673315E-3],"categories":[],"categories_nodes":[],"categories_segments":[],"categories_sizes":[],"default_left":[0,0,0,0,0,0,0,0,0,0,0,0,0,0,0],"id":52,"left_children":[1,3,5,7,9,11,13,-1,-1,-1,-1,-1,-1,-1,-1],"loss_changes":[3.559323E1,8.591755E0,5.098421E0,6.973793E0,6.4770145E0,4.7696548E0,1.0347369E1,0E0,0E0,0E0,0E0,0E0,0E0,0E0,0E0],"parents":[2147483647,0,0,1,1,2,2,3,3,4,4,5,5,6,6],"right_children":[2,4,6,8,10,12,14,-1,-1,-1,-1,-1,-1,-1,-1],"split_conditions":[5.5573E4,3.4472E4,7.8E1,5.3E1,3.878E4,8.011E1,4.5E1,2.1102827E-2,4.2363373E-3,-3.5211826E-3,8.329661E-3,-4.565839E-3,-5.389421E-4,-4.1427193E-3,6.673315E-3],"split_indices":[4,4,9,3,4,7,3,0,0,0,0,0,0,0,0],"split_type":[0,0,0,0,0,0,0,0,0,0,0,0,0,0,0],"sum_hessian":[1.8604947E2,3.499099E1,1.5105847E2,1.2119377E1,2.287161E1,1.1732075E2,3.3737732E1,7.905717E0,4.2136602E0,5.5267053E0,1.7344906E1,5.93585E1,5.7962246E1,1.5362847E1,1.8374886E1],"tree_param":{"num_deleted":"0","num_feature":"12","num_nodes":"15","size_leaf_vector":"1"}},{"base_weights":[3.626265E-2,4.6205693E-1,-2.36649E-1,3.3608755E-1,1.2217978E0,-5.510334E-1,-9.4105974E-2,6.644599E-3,5.9696456E-4,1.5394952E-2,-6.2010246E-3,-8.046393E-3,-2.67558E-3,3.1048413E-3,-2.1797398E-3],"categories":[],"categories_nodes":[],"categories_segments":[],"categories_sizes":[],"default_left":[0,0,0,0,0,0,0,0,0,0,0,0,0,0,0],"id":53,"left_children":[1,3,5,7,9,11,13,-1,-1,-1,-1,-1,-1,-1,-1],"loss_changes":[2.2133543E1,6.706724E0,5.1537347E0,5.87519E0,6.921898E0,2.3750792E0,4.133564E0,0E0,0E0,0E0,0E0,0E0,0E0,0E0,0E0],"parents":[2147483647,0,0,1,1,2,2,3,3,4,4,5,5,6,6],"right_children":[2,4,6,8,10,12,14,-1,-1,-1,-1,-1,-1,-1,-1],"split_conditions":[9.8788E4,9E1,1.43248E5,3.9E1,4.113E3,4.8E1,2.4E1,6.644599E-3,5.9696456E-4,1.5394952E-2,-6.2010246E-3,-8.046393E-3,-2.67558E-3,3.1048413E-3,-2.1797398E-3],"split_indices":[4,9,4,9,8,3,9,0,0,0,0,0,0,0,0],"split_type":[0,0,0,0,0,0,0,0,0,0,0,0,0,0,0],"sum_hessian":[1.885301E2,7.336838E1,1.15161736E2,6.417085E1,9.197521E0,3.503185E1,8.012988E1,2.8685898E1,3.5484955E1,7.9845066E0,1.213015E0,1.75197E1,1.751215E1,1.842892E1,6.1700966E1],"tree_param":{"num_deleted":"0","num_feature":"12","num_nodes":"15","size_leaf_vector":"1"}},{"base_weights":[1.9031657E-2,4.5863685E-1,-1.979189E-1,9.9715525E-1,3.188656E-1,-3.337744E-1,2.688843E-1,4.9007824E-3,2.3831617E-2,-1.1871628E-3,5.947576E-3,6.024494E-3,-3.9494033E-3,-3.8611435E-3,8.39704E-3],"categories":[],"categories_nodes":[],"categories_segments":[],"categories_sizes":[],"default_left":[0,0,0,0,0,0,0,0,0,0,0,0,0,0,0],"id":54,"left_children":[1,3,5,7,9,11,13,-1,-1,-1,-1,-1,-1,-1,-1],"loss_changes":[1.8331833E1,4.4617424E0,8.255405E0,7.698202E0,6.3345637E0,5.974745E0,1.1383682E1,0E0,0E0,0E0,0E0,0E0,0E0,0E0,0E0],"parents":[2147483647,0,0,1,1,2,2,3,3,4,4,5,5,6,6],"right_children":[2,4,6,8,10,12,14,-1,-1,-1,-1,-1,-1,-1,-1],"split_conditions":[8.192E4,3.3521E4,7.9E1,8.6E1,4.3E1,4E0,4.5E1,4.9007824E-3,2.3831617E-2,-1.1871628E-3,5.947576E-3,6.024494E-3,-3.9494033E-3,-3.8611435E-3,8.39704E-3],"split_indices":[4,4,9,9,3,9,3,0,0,0,0,0,0,0,0],"split_type":[0,0,0,0,0,0,0,0,0,0,0,0,0,0,0],"sum_hessian":[1.9026102E2,6.250124E1,1.2775978E2,1.1615233E1,5.0886005E1,9.918002E1,2.8579756E1,9.495024E0,2.1202092E0,1.9897322E1,3.0988686E1,5.5396175E0,9.36404E1,1.3459248E1,1.5120508E1],"tree_param":{"num_deleted":"0","num_feature":"12","num_nodes":"15","size_leaf_vector":"1"}},{"base_weights":[-6.696471E-2,3.6490592E-1,-3.8455346E-1,1.1189207E0,2.0768689E-1,-5.1877284E-1,-8.8725045E-2,1.6246306E-2,1.6088819E-4,-6.490729E-3,3.584993E-3,-6.477578E-3,-6.8735733E-4,6.926019E-3,-2.4740286E-3],"categories":[],"categories_nodes":[],"categories_segments":[],"categories_sizes":[],"default_left":[0,0,0,0,0,0,0,0,0,0,0,0,0,0,0],"id":55,"left_children":[1,3,5,7,9,11,13,-1,-1,-1,-1,-1,-1,-1,-1],"loss_changes":[2.6036682E1,9.313105E0,4.293272E0,7.594921E0,9.000484E0,4.3074055E0,4.5496607E0,0E0,0E0,0E0,0E0,0E0,0E0,0E0,0E0],"parents":[2147483647,0,0,1,1,2,2,3,3,4,4,5,5,6,6],"right_children":[2,4,6,8,10,12,14,-1,-1,-1,-1,-1,-1,-1,-1],"split_conditions":[1.03672E5,3.4472E4,1E0,5.3E1,4.4309E4,7.9E1,1.3E1,1.6246306E-2,1.6088819E-4,-6.490729E-3,3.584993E-3,-6.477578E-3,-6.8735733E-4,6.926019E-3,-2.4740286E-3],"split_indices":[4,4,1,3,4,9,9,0,0,0,0,0,0,0,0],"split_type":[0,0,0,0,0,0,0,0,0,0,0,0,0,0,0],"sum_hessian":[1.8780777E2,7.952174E1,1.08286026E2,1.2664842E1,6.68569E1,7.3971176E1,3.431485E1,8.358746E0,4.306096E0,9.512561E0,5.734434E1,5.715162E1,1.6819555E1,5.224529E0,2.9090322E1],"tree_param":{"num_deleted":"0","num_feature":"12","num_nodes":"15","size_leaf_vector":"1"}},{"base_weights":[-9.202676E-2,3.4763154E-1,-3.2772064E-1,9.058749E-1,1.9701758E-1,-6.304345E-1,-1.5115973E-1,1.5511917E-2,1.8643037E-3,8.755337E-3,5.634332E-4,-8.010039E-3,-1.5614422E-3,6.108871E-4,-5.2178768E-3],"categories":[],"categories_nodes":[],"categories_segments":[],"categories_sizes":[],"default_left":[0,0,0,0,0,0,0,0,0,0,0,0,0,0,0],"id":56,"left_children":[1,3,5,7,9,11,13,-1,-1,-1,-1,-1,-1,-1,-1],"loss_changes":[1.9441006E1,5.3351254E0,6.4217625E0,6.050563E0,5.001955E0,3.4833736E0,6.193713E0,0E0,0E0,0E0,0E0,0E0,0E0,0E0,0E0],"parents":[2147483647,0,0,1,1,2,2,3,3,4,4,5,5,6,6],"right_children":[2,4,6,8,10,12,14,-1,-1,-1,-1,-1,-1,-1,-1],"split_conditions":[8.387E4,3.5451E4,1.30212E3,1.58224E3,1.6E1,7.213E1,1.1414E2,1.5511917E-2,1.8643037E-3,8.755337E-3,5.634332E-4,-8.010039E-3,-1.5614422E-3,6.108871E-4,-5.2178768E-3],"split_indices":[4,4,8,8,9,7,7,0,0,0,0,0,0,0,0],"split_type":[0,0,0,0,0,0,0,0,0,0,0,0,0,0,0],"sum_hessian":[1.855102E2,6.45762E1,1.2093399E2,1.2655322E1,5.1920883E1,4.3604095E1,7.7329895E1,6.0619063E0,6.5934153E0,8.018981E0,4.39019E1,3.1563896E1,1.2040199E1,4.970207E1,2.762783E1],"tree_param":{"num_deleted":"0","num_feature":"12","num_nodes":"15","size_leaf_vector":"1"}},{"base_weights":[-1.1705734E-2,3.751694E-1,-2.5839677E-1,7.698813E-1,2.0793945E-1,-3.818771E-1,1.4750805E-1,1.8975268E-3,1.7048243E-2,1.2293707E-4,6.787577E-3,-9.3952566E-4,-5.7139257E-3,5.7822824E-3,-4.826737E-3],"categories":[],"categories_nodes":[],"categories_segments":[],"categories_sizes":[],"default_left":[0,0,0,0,0,0,0,0,0,0,0,0,0,0,0],"id":57,"left_children":[1,3,5,7,9,11,13,-1,-1,-1,-1,-1,-1,-1,-1],"loss_changes":[1.8078987E1,4.709344E0,5.852555E0,1.1383182E1,4.890911E0,4.7998905E0,7.796568E0,0E0,0E0,0E0,0E0,0E0,0E0,0E0,0E0],"parents":[2147483647,0,0,1,1,2,2,3,3,4,4,5,5,6,6],"right_children":[2,4,6,8,10,12,14,-1,-1,-1,-1,-1,-1,-1,-1],"split_conditions":[9.43E4,1.7E1,7.8E1,5E0,4.9E1,3E1,9.602E1,1.8975268E-3,1.7048243E-2,1.2293707E-4,6.787577E-3,-9.3952566E-4,-5.7139257E-3,5.7822824E-3,-4.826737E-3],"split_indices":[4,6,9,5,6,9,7,0,0,0,0,0,0,0,0],"split_type":[0,0,0,0,0,0,0,0,0,0,0,0,0,0,0],"sum_hessian":[1.8741475E2,7.277071E1,1.14644035E2,2.0583609E1,5.2187103E1,8.794843E1,2.6695599E1,1.344438E1,7.1392293E0,3.7592056E1,1.4595045E1,3.5504063E1,5.2444374E1,1.5906307E1,1.0789291E1],"tree_param":{"num_deleted":"0","num_feature":"12","num_nodes":"15","size_leaf_vector":"1"}},{"base_weights":[-6.935437E-3,4.1636983E-1,-2.958129E-1,1.199012E0,2.4086228E-1,-2.3360632E-1,-8.123834E-1,-2.9829657E-4,1.6429013E-2,6.3367914E-3,-4.7615854E-4,-4.9574277E-3,-9.493482E-4,-8.818915E-3,-4.4203963E-4],"categories":[],"categories_nodes":[],"categories_segments":[],"categories_sizes":[],"default_left":[0,0,0,0,0,0,0,0,0,0,0,0,0,0,0],"id":58,"left_children":[1,3,5,7,9,11,13,-1,-1,-1,-1,-1,-1,-1,-1],"loss_changes":[2.2849478E1,1.0123084E1,3.3786926E0,7.4854946E0,7.1881957E0,3.6068344E0,5.7675934E-1,0E0,0E0,0E0,0E0,0E0,0E0,0E0,0E0],"parents":[2147483647,0,0,1,1,2,2,3,3,4,4,5,5,6,6],"right_children":[2,4,6,8,10,12,14,-1,-1,-1,-1,-1,-1,-1,-1],"split_conditions":[9.8788E4,3.5451E4,1.3731E2,3.6E1,4.1E1,1.1298E3,1.4907E2,-2.9829657E-4,1.6429013E-2,6.3367914E-3,-4.7615854E-4,-4.9574277E-3,-9.493482E-4,-8.818915E-3,-4.4203963E-4],"split_indices":[4,4,7,9,9,8,7,0,0,0,0,0,0,0,0],"split_type":[0,0,0,0,0,0,0,0,0,0,0,0,0,0,0],"sum_hessian":[1.8484956E2,7.4800156E1,1.100494E2,1.263319E1,6.216697E1,9.951751E1,1.0531898E1,3.5999792E0,9.033212E0,2.5816437E1,3.635053E1,3.354018E1,6.5977325E1,9.522256E0,1.0096415E0],"tree_param":{"num_deleted":"0","num_feature":"12","num_nodes":"15","size_leaf_vector":"1"}},{"base_weights":[1.1169318E-2,3.6056846E-1,-2.3529314E-1,8.713812E-1,2.6115665E-1,-3.0730858E-1,1.6173646E-1,1.1533791E-3,1.4478626E-2,6.4611295E-3,6.4353866E-4,-6.0443827E-3,-1.6837956E-3,7.3879086E-3,-2.581806E-3],"categories":[],"categories_nodes":[],"categories_segments":[],"categories_sizes":[],"default_left":[0,0,0,0,0,0,0,0,0,0,0,0,0,0,0],"id":59,"left_children":[1,3,5,7,9,11,13,-1,-1,-1,-1,-1,-1,-1,-1],"loss_changes":[1.6356071E1,3.7612276E0,3.2349143E0,5.2237577E0,5.0480638E0,3.8050365E0,4.4940877E0,0E0,0E0,0E0,0E0,0E0,0E0,0E0,0E0],"parents":[2147483647,0,0,1,1,2,2,3,3,4,4,5,5,6,6],"right_children":[2,4,6,8,10,12,14,-1,-1,-1,-1,-1,-1,-1,-1],"split_conditions":[9.8788E4,3.3521E4,6E0,5.3E1,3.2E1,1.9E1,2.7E1,1.1533791E-3,1.4478626E-2,6.4611295E-3,6.4353866E-4,-6.0443827E-3,-1.6837956E-3,7.3879086E-3,-2.581806E-3],"split_indices":[4,4,5,9,9,6,6,0,0,0,0,0,0,0,0],"split_type":[0,0,0,0,0,0,0,0,0,0,0,0,0,0,0],"sum_hessian":[1.8795041E2,7.754923E1,1.1040117E2,1.1368507E1,6.6180725E1,9.364187E1,1.6759306E1,5.437462E0,5.931045E0,2.1615889E1,4.456484E1,2.8766912E1,6.4874954E1,6.739054E0,1.0020252E1],"tree_param":{"num_deleted":"0","num_feature":"12","num_nodes":"15","size_leaf_vector":"1"}},{"base_weights":[4.709665E-2,5.651747E-1,-3.2302865E-1,1.1926105E0,4.5790818E-1,9.717487E-1,-3.9056343E-1,1.709731E-2,2.1110728E-4,-3.8526782E-3,5.585428E-3,-7.0326547E-3,1.9087564E-2,-5.0770473E-3,-3.870338E-5],"categories":[],"categories_nodes":[],"categories_segments":[],"categories_sizes":[],"default_left":[0,0,0,0,0,0,0,0,0,0,0,0,0,0,0],"id":60,"left_children":[1,3,5,7,9,11,13,-1,-1,-1,-1,-1,-1,-1,-1],"loss_changes":[3.694674E1,4.855503E0,1.0213981E1,6.684993E0,6.1687775E0,1.0542971E1,4.872322E0,0E0,0E0,0E0,0E0,0E0,0E0,0E0,0E0],"parents":[2147483647,0,0,1,1,2,2,3,3,4,4,5,5,6,6],"right_children":[2,4,6,8,10,12,14,-1,-1,-1,-1,-1,-1,-1,-1],"split_conditions":[9.8788E4,3.3521E4,4E0,5.3E1,3.878E4,2.3E1,7.9E1,1.709731E-2,2.1110728E-4,-3.8526782E-3,5.585428E-3,-7.0326547E-3,1.9087564E-2,-5.0770473E-3,-3.870338E-5],"split_indices":[4,4,9,3,4,6,9,0,0,0,0,0,0,0,0],"split_type":[0,0,0,0,0,0,0,0,0,0,0,0,0,0,0],"sum_hessian":[1.9072592E2,7.9258255E1,1.11467674E2,1.0094443E1,6.916381E1,4.862122E0,1.0660555E2,6.684396E0,3.410047E0,7.073072E0,6.2090736E1,1.833671E0,3.0284512E0,8.157962E1,2.5025932E1],"tree_param":{"num_deleted":"0","num_feature":"12","num_nodes":"15","size_leaf_vector":"1"}},{"base_weights":[2.8211303E-2,4.518821E-1,-2.7268687E-1,-9.378718E-2,6.218837E-1,-1.4056918E-1,-7.425644E-1,5.161302E-3,-5.2622436E-3,3.0292592E-3,9.4138E-3,-2.3978022E-3,9.784939E-3,-2.6141405E-3,-8.623644E-3],"categories":[],"categories_nodes":[],"categories_segments":[],"categories_sizes":[],"default_left":[0,0,0,0,0,0,0,0,0,0,0,0,0,0,0],"id":61,"left_children":[1,3,5,7,9,11,13,-1,-1,-1,-1,-1,-1,-1,-1],"loss_changes":[2.4057993E1,7.325985E0,6.749487E0,5.4092555E0,5.815527E0,9.939027E0,1.1577826E0,0E0,0E0,0E0,0E0,0E0,0E0,0E0,0E0],"parents":[2147483647,0,0,1,1,2,2,3,3,4,4,5,5,6,6],"right_children":[2,4,6,8,10,12,14,-1,-1,-1,-1,-1,-1,-1,-1],"split_conditions":[9.8788E4,4.486E1,1.202E2,1E0,6E0,4.65885E3,2.0547E3,5.161302E-3,-5.2622436E-3,3.0292592E-3,9.4138E-3,-2.3978022E-3,9.784939E-3,-2.6141405E-3,-8.623644E-3],"split_indices":[4,7,7,11,10,8,8,0,0,0,0,0,0,0,0],"split_type":[0,0,0,0,0,0,0,0,0,0,0,0,0,0,0],"sum_hessian":[1.8675053E2,7.734517E1,1.09405365E2,1.8479189E1,5.886598E1,8.640861E1,2.2996756E1,7.58609E0,1.0893099E1,3.0432707E1,2.8433271E1,8.0093605E1,6.315005E0,5.218776E0,1.7777979E1],"tree_param":{"num_deleted":"0","num_feature":"12","num_nodes":"15","size_leaf_vector":"1"}},{"base_weights":[1.3157529E-3,4.326548E-1,-2.8373256E-1,2.7414876E-1,9.7508264E-1,-4.267996E-1,-3.0013891E-2,4.5110146E-3,-2.9640016E-3,1.3984018E-2,1.0316483E-3,-5.943548E-3,-1.6509179E-3,1.2490221E-2,-1.2677086E-3],"categories":[],"categories_nodes":[],"categories_segments":[],"categories_sizes":[],"default_left":[0,0,0,0,0,0,0,0,0,0,0,0,0,0,0],"id":62,"left_children":[1,3,5,7,9,11,13,-1,-1,-1,-1,-1,-1,-1,-1],"loss_changes":[2.3109228E1,6.162513E0,4.09511E0,6.117033E0,5.953376E0,3.071784E0,5.341306E0,0E0,0E0,0E0,0E0,0E0,0E0,0E0,0E0],"parents":[2147483647,0,0,1,1,2,2,3,3,4,4,5,5,6,6],"right_children":[2,4,6,8,10,12,14,-1,-1,-1,-1,-1,-1,-1,-1],"split_conditions":[9.43E4,8.2E1,5.5E1,6E1,9.5E1,3.9E1,5.6E1,4.5110146E-3,-2.9640016E-3,1.3984018E-2,1.0316483E-3,-5.943548E-3,-1.6509179E-3,1.2490221E-2,-1.2677086E-3],"split_indices":[4,9,3,9,9,6,3,0,0,0,0,0,0,0,0],"split_type":[0,0,0,0,0,0,0,0,0,0,0,0,0,0,0],"sum_hessian":[1.8595413E2,7.378453E1,1.121696E2,5.8264214E1,1.5520317E1,7.1288956E1,4.0880642E1,4.4631382E1,1.3632831E1,1.0041372E1,5.4789453E0,4.2687653E1,2.8601307E1,2.037532E0,3.884311E1],"tree_param":{"num_deleted":"0","num_feature":"12","num_nodes":"15","size_leaf_vector":"1"}},{"base_weights":[-1.2164188E-2,3.3003432E-1,-2.5909296E-1,8.7706035E-1,1.4401865E-1,9.121238E-1,-3.2403693E-1,1.6554939E-2,2.9840185E-3,7.734589E-3,1.3207208E-4,2.2744743E-2,8.526928E-5,-6.3510444E-3,-1.3937457E-3],"categories":[],"categories_nodes":[],"categories_segments":[],"categories_sizes":[],"default_left":[0,0,0,0,0,0,0,0,0,0,0,0,0,0,0],"id":63,"left_children":[1,3,5,7,9,11,13,-1,-1,-1,-1,-1,-1,-1,-1],"loss_changes":[1.5990068E1,7.9461527E0,8.654215E0,8.485539E0,4.962779E0,7.4103184E0,5.934619E0,0E0,0E0,0E0,0E0,0E0,0E0,0E0,0E0],"parents":[2147483647,0,0,1,1,2,2,3,3,4,4,5,5,6,6],"right_children":[2,4,6,8,10,12,14,-1,-1,-1,-1,-1,-1,-1,-1],"split_conditions":[9.8788E4,2.4E1,4E0,1E0,3.2533E4,5.895E1,1.33146E3,1.6554939E-2,2.9840185E-3,7.734589E-3,1.3207208E-4,2.2744743E-2,8.526928E-5,-6.3510444E-3,-1.3937457E-3],"split_indices":[4,9,9,11,4,7,8,0,0,0,0,0,0,0,0],"split_type":[0,0,0,0,0,0,0,0,0,0,0,0,0,0,0],"sum_hessian":[1.8722263E2,7.8332054E1,1.0889057E2,1.8934727E1,5.9397327E1,5.0354323E0,1.0385514E2,7.280202E0,1.1654526E1,9.374793E0,5.0022537E1,1.4029995E0,3.632433E0,3.7778015E1,6.6077126E1],"tree_param":{"num_deleted":"0","num_feature":"12","num_nodes":"15","size_leaf_vector":"1"}},{"base_weights":[5.3805694E-2,3.8720778E-1,-1.8975087E-1,2.6679125E-1,9.72807E-1,-2.9759753E-1,1.7585796E-1,4.6164277E-3,-1.1085436E-3,1.4714566E-2,-1.02351936E-4,5.6366273E-3,-3.6686424E-3,4.714657E-3,-4.1215545E-3],"categories":[],"categories_nodes":[],"categories_segments":[],"categories_sizes":[],"default_left":[0,0,0,0,0,0,0,0,0,0,0,0,0,0,0],"id":64,"left_children":[1,3,5,7,9,11,13,-1,-1,-1,-1,-1,-1,-1,-1],"loss_changes":[1.532263E1,5.353754E0,4.357623E0,5.0110993E0,6.4851656E0,5.2590337E0,4.6268167E0,0E0,0E0,0E0,0E0,0E0,0E0,0E0,0E0],"parents":[2147483647,0,0,1,1,2,2,3,3,4,4,5,5,6,6],"right_children":[2,4,6,8,10,12,14,-1,-1,-1,-1,-1,-1,-1,-1],"split_conditions":[9.8788E4,9E1,7.9E1,2.71491E3,5.3E1,4E0,9.4E1,4.6164277E-3,-1.1085436E-3,1.4714566E-2,-1.02351936E-4,5.6366273E-3,-3.6686424E-3,4.714657E-3,-4.1215545E-3],"split_indices":[4,9,9,8,3,9,9,0,0,0,0,0,0,0,0],"split_type":[0,0,0,0,0,0,0,0,0,0,0,0,0,0,0],"sum_hessian":[1.8679227E2,7.8603264E1,1.0818901E2,6.640418E1,1.2199079E1,8.368869E1,2.450032E1,4.365655E1,2.274763E1,7.763959E0,4.4351196E0,5.698325E0,7.7990364E1,1.643585E1,8.06447E0],"tree_param":{"num_deleted":"0","num_feature":"12","num_nodes":"15","size_leaf_vector":"1"}},{"base_weights":[9.2284605E-2,5.7065517E-1,-1.7748477E-1,1.3716078E0,4.755108E-1,-3.788758E-1,1.587621E-1,1.0040748E-3,3.0792333E-2,2.8128906E-3,9.421625E-3,4.08797E-4,-5.3128027E-3,-1.0647267E-3,7.335701E-3],"categories":[],"categories_nodes":[],"categories_segments":[],"categories_sizes":[],"default_left":[0,0,0,0,0,0,0,0,0,0,0,0,0,0,0],"id":65,"left_children":[1,3,5,7,9,11,13,-1,-1,-1,-1,-1,-1,-1,-1],"loss_changes":[2.4735304E1,4.6112576E0,8.377094E0,1.4457978E1,5.4690266E0,4.954529E0,7.1995964E0,0E0,0E0,0E0,0E0,0E0,0E0,0E0,0E0],"parents":[2147483647,0,0,1,1,2,2,3,3,4,4,5,5,6,6],"right_children":[2,4,6,8,10,12,14,-1,-1,-1,-1,-1,-1,-1,-1],"split_conditions":[8.387E4,8E0,5.4E1,5E0,7.8E1,2.7E1,7.1E1,1.0040748E-3,3.0792333E-2,2.8128906E-3,9.421625E-3,4.08797E-4,-5.3128027E-3,-1.0647267E-3,7.335701E-3],"split_indices":[4,9,3,5,9,3,9,0,0,0,0,0,0,0,0],"split_type":[0,0,0,0,0,0,0,0,0,0,0,0,0,0,0],"sum_hessian":[1.8988783E2,6.806886E1,1.2181897E2,5.8028393E0,6.226602E1,7.610814E1,4.5710835E1,3.933466E0,1.8693733E0,4.509863E1,1.7167393E1,2.0467611E1,5.5640526E1,3.1835627E1,1.3875206E1],"tree_param":{"num_deleted":"0","num_feature":"12","num_nodes":"15","size_leaf_vector":"1"}},{"base_weights":[2.509754E-2,3.5613295E-1,-2.3411494E-1,-4.0394026E-1,4.8453438E-1,-9.601494E-2,-5.967491E-1,-7.443072E-3,1.1266373E-2,6.597324E-3,-1.7423014E-3,-2.1188115E-3,1.4839483E-2,-9.000672E-3,-3.7400397E-3],"categories":[],"categories_nodes":[],"categories_segments":[],"categories_sizes":[],"default_left":[0,0,0,0,0,0,0,0,0,0,0,0,0,0,0],"id":66,"left_children":[1,3,5,7,9,11,13,-1,-1,-1,-1,-1,-1,-1,-1],"loss_changes":[1.631225E1,8.3404E0,5.284949E0,7.405804E0,8.407249E0,1.4675102E1,1.638133E0,0E0,0E0,0E0,0E0,0E0,0E0,0E0,0E0],"parents":[2147483647,0,0,1,1,2,2,3,3,4,4,5,5,6,6],"right_children":[2,4,6,8,10,12,14,-1,-1,-1,-1,-1,-1,-1,-1],"split_conditions":[1.03672E5,2.6E1,1.1107E2,9E1,6.5E1,4.71184E3,1E0,-7.443072E-3,1.1266373E-2,6.597324E-3,-1.7423014E-3,-2.1188115E-3,1.4839483E-2,-9.000672E-3,-3.7400397E-3],"split_indices":[4,3,7,9,3,8,11,0,0,0,0,0,0,0,0],"split_type":[0,0,0,0,0,0,0,0,0,0,0,0,0,0,0],"sum_hessian":[1.8812895E2,8.245426E1,1.0567469E2,1.160608E1,7.084818E1,7.744608E1,2.8228603E1,9.914926E0,1.6911545E0,5.5963306E1,1.4884873E1,7.296138E1,4.4847097E0,1.0664996E1,1.7563608E1],"tree_param":{"num_deleted":"0","num_feature":"12","num_nodes":"15","size_leaf_vector":"1"}},{"base_weights":[-1.8990451E-2,3.8374573E-1,-2.8426996E-1,2.5517184E-1,1.1275756E0,-3.6458158E-1,3.0361158E-1,-8.89959E-3,3.3208993E-3,3.633276E-3,1.8658185E-2,-4.8567844E-3,-1.0615705E-3,1.6216032E-2,-8.670763E-4],"categories":[],"categories_nodes":[],"categories_segments":[],"categories_sizes":[],"default_left":[0,0,0,0,0,0,0,0,0,0,0,0,0,0,0],"id":67,"left_children":[1,3,5,7,9,11,13,-1,-1,-1,-1,-1,-1,-1,-1],"loss_changes":[2.0539398E1,7.015606E0,5.5809956E0,6.1444025E0,5.50692E0,3.1527147E0,7.5852375E0,0E0,0E0,0E0,0E0,0E0,0E0,0E0,0E0],"parents":[2147483647,0,0,1,1,2,2,3,3,4,4,5,5,6,6],"right_children":[2,4,6,8,10,12,14,-1,-1,-1,-1,-1,-1,-1,-1],"split_conditions":[9.3359E4,9E1,9E1,2.7795E4,3.3E1,1E0,9.2E1,-8.89959E-3,3.3208993E-3,3.633276E-3,1.8658185E-2,-4.8567844E-3,-1.0615705E-3,1.6216032E-2,-8.670763E-4],"split_indices":[4,9,9,4,6,1,9,0,0,0,0,0,0,0,0],"split_type":[0,0,0,0,0,0,0,0,0,0,0,0,0,0,0],"sum_hessian":[1.9022763E2,7.5365036E1,1.14862595E2,6.540294E1,9.962101E0,1.0139119E2,1.3471404E1,3.451276E0,6.195166E1,5.6280017E0,4.3340993E0,6.844071E1,3.2950474E1,2.3572195E0,1.1114184E1],"tree_param":{"num_deleted":"0","num_feature":"12","num_nodes":"15","size_leaf_vector":"1"}},{"base_weights":[-6.8606436E-2,3.8017142E-1,-3.7872782E-1,-1.8038662E-2,5.434515E-1,2.2037084E-1,-4.2429945E-1,3.5589968E-3,-4.3230546E-3,1.03556495E-2,3.5334914E-3,-3.178117E-3,8.625609E-3,-6.8788426E-3,-3.072671E-3],"categories":[],"categories_nodes":[],"categories_segments":[],"categories_sizes":[],"default_left":[0,0,0,0,0,0,0,0,0,0,0,0,0,0,0],"id":68,"left_children":[1,3,5,7,9,11,13,-1,-1,-1,-1,-1,-1,-1,-1],"loss_changes":[2.6301329E1,5.035962E0,3.1415634E0,3.7860582E0,4.765869E0,3.2292054E0,2.9996815E0,0E0,0E0,0E0,0E0,0E0,0E0,0E0,0E0],"parents":[2147483647,0,0,1,1,2,2,3,3,4,4,5,5,6,6],"right_children":[2,4,6,8,10,12,14,-1,-1,-1,-1,-1,-1,-1,-1],"split_conditions":[9.8788E4,5.491E1,1.979E1,3.465E1,1.38942E3,5.1E1,1.25987E3,3.5589968E-3,-4.3230546E-3,1.03556495E-2,3.5334914E-3,-3.178117E-3,8.625609E-3,-6.8788426E-3,-3.072671E-3],"split_indices":[4,7,7,7,8,9,8,0,0,0,0,0,0,0,0],"split_type":[0,0,0,0,0,0,0,0,0,0,0,0,0,0,0],"sum_hessian":[1.8694489E2,7.630204E1,1.1064285E2,2.2447128E1,5.385491E1,7.550175E0,1.03092674E2,1.1871867E1,1.0575261E1,1.3767607E1,4.0087303E1,4.382536E0,3.167639E0,3.0199183E1,7.289349E1],"tree_param":{"num_deleted":"0","num_feature":"12","num_nodes":"15","size_leaf_vector":"1"}},{"base_weights":[6.673816E-4,5.746319E-1,-1.729774E-1,3.6121652E-1,1.2311331E0,-6.9577277E-1,-9.7146794E-2,-2.555688E-3,6.367912E-3,1.6197126E-2,-1.7229943E-3,-3.3861124E-3,-8.958002E-3,5.582849E-3,-1.3247664E-3],"categories":[],"categories_nodes":[],"categories_segments":[],"categories_sizes":[],"default_left":[0,0,0,0,0,0,0,0,0,0,0,0,0,0,0],"id":69,"left_children":[1,3,5,7,9,11,13,-1,-1,-1,-1,-1,-1,-1,-1],"loss_changes":[1.8891396E1,5.7235575E0,5.701568E0,6.0504875E0,5.94271E0,1.0020599E0,3.043816E0,0E0,0E0,0E0,0E0,0E0,0E0,0E0,0E0],"parents":[2147483647,0,0,1,1,2,2,3,3,4,4,5,5,6,6],"right_children":[2,4,6,8,10,12,14,-1,-1,-1,-1,-1,-1,-1,-1],"split_conditions":[6.0903E4,8.7E1,2.545E1,1.04076E3,3.19939E3,4.3E1,3.248E1,-2.555688E-3,6.367912E-3,1.6197126E-2,-1.7229943E-3,-3.3861124E-3,-8.958002E-3,5.582849E-3,-1.3247664E-3],"split_indices":[4,9,7,8,8,3,7,0,0,0,0,0,0,0,0],"split_type":[0,0,0,0,0,0,0,0,0,0,0,0,0,0,0],"sum_hessian":[1.8754982E2,4.3025227E1,1.4452458E2,3.3639812E1,9.385416E0,1.7271963E1,1.27252625E2,1.0410918E1,2.3228893E1,7.229593E0,2.1558232E0,7.167236E0,1.0104727E1,5.751421E0,1.21501205E2],"tree_param":{"num_deleted":"0","num_feature":"12","num_nodes":"15","size_leaf_vector":"1"}},{"base_weights":[4.68449E-2,4.1184407E-1,-2.0327918E-1,6.022917E-1,-1.0241416E-2,-3.2940656E-1,1.385942E-1,4.258744E-3,1.5005148E-2,4.7446135E-3,-6.0992585E-3,9.866379E-4,-4.468568E-3,3.2987595E-3,-6.175267E-3],"categories":[],"categories_nodes":[],"categories_segments":[],"categories_sizes":[],"default_left":[0,0,0,0,0,0,0,0,0,0,0,0,0,0,0],"id":70,"left_children":[1,3,5,7,9,11,13,-1,-1,-1,-1,-1,-1,-1,-1],"loss_changes":[1.7400131E1,6.232564E0,4.927576E0,7.821409E0,7.575307E0,4.217163E0,4.7186074E0,0E0,0E0,0E0,0E0,0E0,0E0,0E0,0E0],"parents":[2147483647,0,0,1,1,2,2,3,3,4,4,5,5,6,6],"right_children":[2,4,6,8,10,12,14,-1,-1,-1,-1,-1,-1,-1,-1],"split_conditions":[9.2384E4,4E1,7.4E1,3.4E1,5.4E1,1.4E1,2.26283E5,4.258744E-3,1.5005148E-2,4.7446135E-3,-6.0992585E-3,9.866379E-4,-4.468568E-3,3.2987595E-3,-6.175267E-3],"split_indices":[4,6,9,6,9,9,4,0,0,0,0,0,0,0,0],"split_type":[0,0,0,0,0,0,0,0,0,0,0,0,0,0,0],"sum_hessian":[1.8867517E2,7.645701E1,1.1221817E2,5.2390945E1,2.4066065E1,8.2001724E1,3.0216442E1,4.502237E1,7.3685765E0,1.3424418E1,1.0641646E1,1.7689358E1,6.431237E1,2.4565615E1,5.650828E0],"tree_param":{"num_deleted":"0","num_feature":"12","num_nodes":"15","size_leaf_vector":"1"}},{"base_weights":[-4.240135E-2,4.0240327E-1,-3.4972328E-1,-3.0933997E-1,4.846534E-1,-4.9744096E-1,-1.11756E-1,3.2821407E-3,-6.2211636E-3,1.7082848E-2,4.331979E-3,-3.4294399E-3,-6.815941E-3,-3.1561395E-3,4.2831427E-3],"categories":[],"categories_nodes":[],"categories_segments":[],"categories_sizes":[],"default_left":[0,0,0,0,0,0,0,0,0,0,0,0,0,0,0],"id":71,"left_children":[1,3,5,7,9,11,13,-1,-1,-1,-1,-1,-1,-1,-1],"loss_changes":[2.6055157E1,4.711769E0,3.9042187E0,1.9356325E0,3.6826515E0,1.7354717E0,5.0272784E0,0E0,0E0,0E0,0E0,0E0,0E0,0E0,0E0],"parents":[2147483647,0,0,1,1,2,2,3,3,4,4,5,5,6,6],"right_children":[2,4,6,8,10,12,14,-1,-1,-1,-1,-1,-1,-1,-1],"split_conditions":[9.3359E4,2.588E1,5.4E1,1E0,2.906E1,5.6E1,7.4E1,3.2821407E-3,-6.2211636E-3,1.7082848E-2,4.331979E-3,-3.4294399E-3,-6.815941E-3,-3.1561395E-3,4.2831427E-3],"split_indices":[4,7,3,2,7,9,9,0,0,0,0,0,0,0,0],"split_type":[0,0,0,0,0,0,0,0,0,0,0,0,0,0,0],"sum_hessian":[1.8857399E2,7.6925674E1,1.1164832E2,7.6827583E0,6.924292E1,6.821416E1,4.3434166E1,2.5123346E0,5.1704235E0,1.4948802E0,6.774804E1,3.865036E1,2.9563795E1,3.183366E1,1.1600506E1],"tree_param":{"num_deleted":"0","num_feature":"12","num_nodes":"15","size_leaf_vector":"1"}},{"base_weights":[9.53006E-3,2.7928153E-1,-1.924113E-1,1.4012848E-1,9.5224816E-1,-3.1745872E-1,4.3082106E-1,6.755616E-3,-8.666351E-4,1.3597935E-2,1.3220353E-3,-2.434335E-3,-6.416026E-3,-6.38007E-4,8.939564E-3],"categories":[],"categories_nodes":[],"categories_segments":[],"categories_sizes":[],"default_left":[0,0,0,0,0,0,0,0,0,0,0,0,0,0,0],"id":72,"left_children":[1,3,5,7,9,11,13,-1,-1,-1,-1,-1,-1,-1,-1],"loss_changes":[1.0336354E1,7.4725127E0,8.595774E0,8.373785E0,4.413639E0,2.0268211E0,4.309369E0,0E0,0E0,0E0,0E0,0E0,0E0,0E0,0E0],"parents":[2147483647,0,0,1,1,2,2,3,3,4,4,5,5,6,6],"right_children":[2,4,6,8,10,12,14,-1,-1,-1,-1,-1,-1,-1,-1],"split_conditions":[9.8788E4,9E1,6.6E1,1.7E1,6.4619E4,1.269E2,1.75774E5,6.755616E-3,-8.666351E-4,1.3597935E-2,1.3220353E-3,-2.434335E-3,-6.416026E-3,-6.38007E-4,8.939564E-3],"split_indices":[4,9,3,6,4,7,4,0,0,0,0,0,0,0,0],"split_type":[0,0,0,0,0,0,0,0,0,0,0,0,0,0,0],"sum_hessian":[1.87762E2,8.022079E1,1.075412E2,6.747652E1,1.2744269E1,8.997828E1,1.7562918E1,1.948816E1,4.798836E1,8.073641E0,4.670629E0,7.467552E1,1.5302757E1,8.909716E0,8.653202E0],"tree_param":{"num_deleted":"0","num_feature":"12","num_nodes":"15","size_leaf_vector":"1"}},{"base_weights":[4.652204E-2,5.910745E-1,-1.1992529E-1,1.515254E0,4.7337112E-1,1.7769663E-1,-2.2039233E-1,9.158999E-4,2.2075519E-2,-1.1693867E-3,6.9039706E-3,-1.0110408E-3,5.59087E-3,-3.9690537E-3,1.8213578E-3],"categories":[],"categories_nodes":[],"categories_segments":[],"categories_sizes":[],"default_left":[0,0,0,0,0,0,0,0,0,0,0,0,0,0,0],"id":73,"left_children":[1,3,5,7,9,11,13,-1,-1,-1,-1,-1,-1,-1,-1],"loss_changes":[1.7109652E1,4.088191E0,4.369092E0,4.2688284E0,5.2872334E0,4.0013633E0,7.796197E0,0E0,0E0,0E0,0E0,0E0,0E0,0E0,0E0],"parents":[2147483647,0,0,1,1,2,2,3,3,4,4,5,5,6,6],"right_children":[2,4,6,8,10,12,14,-1,-1,-1,-1,-1,-1,-1,-1],"split_conditions":[6.0903E4,8E0,2.4E1,4E0,5.308E1,2.43378E3,7.9E1,9.158999E-4,2.2075519E-2,-1.1693867E-3,6.9039706E-3,-1.0110408E-3,5.59087E-3,-3.9690537E-3,1.8213578E-3],"split_indices":[4,9,9,5,7,8,9,0,0,0,0,0,0,0,0],"split_type":[0,0,0,0,0,0,0,0,0,0,0,0,0,0,0],"sum_hessian":[1.869843E2,4.3176395E1,1.4380789E2,3.5363455E0,3.964005E1,3.609928E1,1.0770862E2,1.5274813E0,2.0088644E0,1.0779911E1,2.886014E1,2.1278997E1,1.4820282E1,7.488478E1,3.282384E1],"tree_param":{"num_deleted":"0","num_feature":"12","num_nodes":"15","size_leaf_vector":"1"}},{"base_weights":[3.6010846E-2,5.73075E-1,-1.3109961E-1,9.0004605E-1,3.2256767E-1,1.0236715E0,-1.769092E-1,-1.9918957E-3,1.3530524E-2,1.3958532E-2,-1.9344461E-5,-6.373365E-3,1.7098371E-2,-6.9979266E-3,-1.2188449E-3],"categories":[],"categories_nodes":[],"categories_segments":[],"categories_sizes":[],"default_left":[0,0,0,0,0,0,0,0,0,0,0,0,0,0,0],"id":74,"left_children":[1,3,5,7,9,11,13,-1,-1,-1,-1,-1,-1,-1,-1],"loss_changes":[1.7096184E1,3.4113846E0,7.8757925E0,9.753673E0,9.457609E0,7.5833282E0,3.9646134E0,0E0,0E0,0E0,0E0,0E0,0E0,0E0,0E0],"parents":[2147483647,0,0,1,1,2,2,3,3,4,4,5,5,6,6],"right_children":[2,4,6,8,10,12,14,-1,-1,-1,-1,-1,-1,-1,-1],"split_conditions":[6.1639E4,1E0,3E0,1.5E1,1.5E1,3.8E1,1E0,-1.9918957E-3,1.3530524E-2,1.3958532E-2,-1.9344461E-5,-6.373365E-3,1.7098371E-2,-6.9979266E-3,-1.2188449E-3],"split_indices":[4,11,9,6,6,3,10,0,0,0,0,0,0,0,0],"split_type":[0,0,0,0,0,0,0,0,0,0,0,0,0,0,0],"sum_hessian":[1.8865166E2,4.4193157E1,1.444585E2,1.8045992E1,2.6147165E1,4.6974955E0,1.39761E2,5.43006E0,1.2615932E1,5.3037086E0,2.0843456E1,1.394055E0,3.3034403E0,1.2191451E1,1.2756955E2],"tree_param":{"num_deleted":"0","num_feature":"12","num_nodes":"15","size_leaf_vector":"1"}},{"base_weights":[4.1732784E-2,4.1570753E-1,-1.5559378E-1,-8.471461E-2,5.7804745E-1,-4.3369567E-1,8.2880035E-3,-3.8416584E-3,8.230984E-3,9.375757E-3,3.13149E-3,1.8245227E-3,-5.6132386E-3,-3.6985101E-3,2.1156454E-3],"categories":[],"categories_nodes":[],"categories_segments":[],"categories_sizes":[],"default_left":[0,0,0,0,0,0,0,0,0,0,0,0,0,0,0],"id":75,"left_children":[1,3,5,7,9,11,13,-1,-1,-1,-1,-1,-1,-1,-1],"loss_changes":[1.4125117E1,5.4173927E0,5.7211313E0,4.9535317E0,4.4705677E0,3.7617788E0,6.2211885E0,0E0,0E0,0E0,0E0,0E0,0E0,0E0,0E0],"parents":[2147483647,0,0,1,1,2,2,3,3,4,4,5,5,6,6],"right_children":[2,4,6,8,10,12,14,-1,-1,-1,-1,-1,-1,-1,-1],"split_conditions":[8.192E4,3.2E1,4E0,8.9E1,1E0,1.3E1,1.30212E3,-3.8416584E-3,8.230984E-3,9.375757E-3,3.13149E-3,1.8245227E-3,-5.6132386E-3,-3.6985101E-3,2.1156454E-3],"split_indices":[4,3,10,9,11,9,8,0,0,0,0,0,0,0,0],"split_type":[0,0,0,0,0,0,0,0,0,0,0,0,0,0,0],"sum_hessian":[1.8953333E2,6.508226E1,1.2445107E2,1.6058664E1,4.9023594E1,4.5534374E1,7.8916695E1,1.2509202E1,3.5494628E0,1.9719843E1,2.9303751E1,7.739758E0,3.7794617E1,2.7304632E1,5.1612064E1],"tree_param":{"num_deleted":"0","num_feature":"12","num_nodes":"15","size_leaf_vector":"1"}},{"base_weights":[5.176872E-2,3.9725894E-1,-2.0757928E-1,-2.9895805E-2,5.85751E-1,-5.716284E-1,-3.8784355E-2,6.383558E-3,-2.8261596E-3,1.6495577E-3,1.0138646E-2,-2.3875898E-3,-7.4928664E-3,-4.3125246E-3,1.7640678E-3],"categories":[],"categories_nodes":[],"categories_segments":[],"categories_sizes":[],"default_left":[0,0,0,0,0,0,0,0,0,0,0,0,0,0,0],"id":76,"left_children":[1,3,5,7,9,11,13,-1,-1,-1,-1,-1,-1,-1,-1],"loss_changes":[1.6772383E1,6.475835E0,6.5562873E0,4.488554E0,9.867439E0,1.8223019E0,6.3439045E0,0E0,0E0,0E0,0E0,0E0,0E0,0E0,0E0],"parents":[2147483647,0,0,1,1,2,2,3,3,4,4,5,5,6,6],"right_children":[2,4,6,8,10,12,14,-1,-1,-1,-1,-1,-1,-1,-1],"split_conditions":[9.8788E4,5.491E1,1.46688E5,4.6029E4,6E0,5.895E1,1.30212E3,6.383558E-3,-2.8261596E-3,1.6495577E-3,1.0138646E-2,-2.3875898E-3,-7.4928664E-3,-4.3125246E-3,1.7640678E-3],"split_indices":[4,7,4,4,10,7,8,0,0,0,0,0,0,0,0],"split_type":[0,0,0,0,0,0,0,0,0,0,0,0,0,0,0],"sum_hessian":[1.8526686E2,7.921239E1,1.06054474E2,2.4509996E1,5.470239E1,3.284005E1,7.3214424E1,6.306963E0,1.8203033E1,2.8285612E1,2.6416775E1,1.2243655E1,2.0596394E1,2.5571953E1,4.764247E1],"tree_param":{"num_deleted":"0","num_feature":"12","num_nodes":"15","size_leaf_vector":"1"}},{"base_weights":[-1.9329503E-2,5.689237E-1,-2.2336464E-1,-2.4428774E-1,6.3794446E-1,7.7286977E-1,-2.612275E-1,-8.144061E-3,7.355567E-3,1.6556304E-3,8.042184E-3,1.6098859E-2,-1.9016744E-3,2.9053979E-4,-3.520155E-3],"categories":[],"categories_nodes":[],"categories_segments":[],"categories_sizes":[],"default_left":[0,0,0,0,0,0,0,0,0,0,0,0,0,0,0],"id":77,"left_children":[1,3,5,7,9,11,13,-1,-1,-1,-1,-1,-1,-1,-1],"loss_changes":[2.2698328E1,2.889927E0,5.4957232E0,3.1318505E0,3.415285E0,4.651907E0,3.5931501E0,0E0,0E0,0E0,0E0,0E0,0E0,0E0,0E0],"parents":[2147483647,0,0,1,1,2,2,3,3,4,4,5,5,6,6],"right_children":[2,4,6,8,10,12,14,-1,-1,-1,-1,-1,-1,-1,-1],"split_conditions":[6.2327E4,2.5565E2,3E0,5E0,5.187E1,3.2E1,9.8788E4,-8.144061E-3,7.355567E-3,1.6556304E-3,8.042184E-3,1.6098859E-2,-1.9016744E-3,2.9053979E-4,-3.520155E-3],"split_indices":[4,8,9,5,7,6,4,0,0,0,0,0,0,0,0],"split_type":[0,0,0,0,0,0,0,0,0,0,0,0,0,0,0],"sum_hessian":[1.8705565E2,4.771121E1,1.3934444E2,3.5339859E0,4.4177223E1,4.3912406E0,1.349532E2,2.340827E0,1.1931589E0,1.2021131E1,3.2156094E1,1.989985E0,2.4012556E0,3.231398E1,1.0263921E2],"tree_param":{"num_deleted":"0","num_feature":"12","num_nodes":"15","size_leaf_vector":"1"}},{"base_weights":[-7.522817E-2,2.4055181E-1,-3.2029793E-1,1.00656316E-1,6.4936733E-1,-4.3948966E-1,-1.3034687E-2,-3.758457E-3,2.5146191E-3,1.4895788E-2,2.6021271E-3,-6.38918E-3,-1.3951862E-3,5.83229E-3,-2.480553E-3],"categories":[],"categories_nodes":[],"categories_segments":[],"categories_sizes":[],"default_left":[0,0,0,0,0,0,0,0,0,0,0,0,0,0,0],"id":78,"left_children":[1,3,5,7,9,11,13,-1,-1,-1,-1,-1,-1,-1,-1],"loss_changes":[1.4754109E1,4.706871E0,3.9207249E0,4.6469693E0,6.508442E0,4.5301514E0,4.4882374E0,0E0,0E0,0E0,0E0,0E0,0E0,0E0,0E0],"parents":[2147483647,0,0,1,1,2,2,3,3,4,4,5,5,6,6],"right_children":[2,4,6,8,10,12,14,-1,-1,-1,-1,-1,-1,-1,-1],"split_conditions":[9.8788E4,7.8E1,6E1,4.3157E4,1E0,9.311E1,1E0,-3.758457E-3,2.5146191E-3,1.4895788E-2,2.6021271E-3,-6.38918E-3,-1.3951862E-3,5.83229E-3,-2.480553E-3],"split_indices":[4,9,3,4,2,7,2,0,0,0,0,0,0,0,0],"split_type":[0,0,0,0,0,0,0,0,0,0,0,0,0,0,0],"sum_hessian":[1.8865523E2,8.244313E1,1.062121E2,6.23525E1,2.0090631E1,7.621636E1,2.9995735E1,1.4630886E1,4.7721615E1,5.464554E0,1.4626077E1,4.5101685E1,3.1114677E1,8.061512E0,2.1934223E1],"tree_param":{"num_deleted":"0","num_feature":"12","num_nodes":"15","size_leaf_vector":"1"}},{"base_weights":[-8.554692E-3,3.410868E-1,-2.2061032E-1,2.5205335E-1,1.0900174E0,-2.9380062E-1,1.6253167E-1,9.255149E-3,1.2561579E-3,-6.343285E-3,1.5601671E-2,-4.1105943E-3,-3.3701185E-4,1.0169179E-2,-4.6183687E-4],"categories":[],"categories_nodes":[],"categories_segments":[],"categories_sizes":[],"default_left":[0,0,0,0,0,0,0,0,0,0,0,0,0,0,0],"id":79,"left_children":[1,3,5,7,9,11,13,-1,-1,-1,-1,-1,-1,-1,-1],"loss_changes":[1.3901339E1,4.4457283E0,3.3198533E0,5.3821063E0,6.843687E0,2.9849844E0,3.4990702E0,0E0,0E0,0E0,0E0,0E0,0E0,0E0,0E0],"parents":[2147483647,0,0,1,1,2,2,3,3,4,4,5,5,6,6],"right_children":[2,4,6,8,10,12,14,-1,-1,-1,-1,-1,-1,-1,-1],"split_conditions":[9.0066E4,1E1,6E0,3.2533E4,6.7815E2,1E0,1.2E1,9.255149E-3,1.2561579E-3,-6.343285E-3,1.5601671E-2,-4.1105943E-3,-3.3701185E-4,1.0169179E-2,-4.6183687E-4],"split_indices":[4,10,5,4,8,1,9,0,0,0,0,0,0,0,0],"split_type":[0,0,0,0,0,0,0,0,0,0,0,0,0,0,0],"sum_hessian":[1.854776E2,6.9793015E1,1.1568458E2,6.3572063E1,6.220948E0,9.732592E1,1.835866E1,9.0496645E0,5.45224E1,1.257965E0,4.962983E0,6.6683205E1,3.0642717E1,2.8440661E0,1.5514593E1],"tree_param":{"num_deleted":"0","num_feature":"12","num_nodes":"15","size_leaf_vector":"1"}},{"base_weights":[4.641718E-2,3.2270038E-1,-1.7855118E-1,5.3293025E-1,-8.22545E-2,-4.401206E-1,-3.601528E-2,3.5781402E-3,1.3992528E-2,-2.0812536E-3,6.341203E-3,-5.6002163E-3,2.5464192E-3,1.8885493E-2,-1.1430614E-3],"categories":[],"categories_nodes":[],"categories_segments":[],"categories_sizes":[],"default_left":[0,0,0,0,0,0,0,0,0,0,0,0,0,0,0],"id":80,"left_children":[1,3,5,7,9,11,13,-1,-1,-1,-1,-1,-1,-1,-1],"loss_changes":[1.1679113E1,7.2183504E0,3.8504941E0,7.9354734E0,2.8069348E0,3.182221E0,1.0494033E1,0E0,0E0,0E0,0E0,0E0,0E0,0E0,0E0],"parents":[2147483647,0,0,1,1,2,2,3,3,4,4,5,5,6,6],"right_children":[2,4,6,8,10,12,14,-1,-1,-1,-1,-1,-1,-1,-1],"split_conditions":[1.03672E5,4E1,1.21524E3,9E1,9.0785E4,6.8E1,3.183E1,3.5781402E-3,1.3992528E-2,-2.0812536E-3,6.341203E-3,-5.6002163E-3,2.5464192E-3,1.8885493E-2,-1.1430614E-3],"split_indices":[4,6,8,9,4,3,7,0,0,0,0,0,0,0,0],"split_type":[0,0,0,0,0,0,0,0,0,0,0,0,0,0,0],"sum_hessian":[1.8597609E2,8.327357E1,1.0270252E2,5.460808E1,2.8665482E1,3.5488796E1,6.721372E1,4.660125E1,8.006833E0,2.4984964E1,3.6805167E0,3.0431002E1,5.0577965E0,1.7235202E0,6.5490204E1],"tree_param":{"num_deleted":"0","num_feature":"12","num_nodes":"15","size_leaf_vector":"1"}},{"base_weights":[6.254703E-2,5.995046E-1,-7.3277526E-2,-2.622308E-2,7.922776E-1,-3.2114688E-1,4.17708E-2,1.10595785E-2,-4.015801E-3,1.1369506E-2,1.6805964E-3,-7.5448058E-3,-1.0726921E-3,1.227609E-2,-1.0523534E-4],"categories":[],"categories_nodes":[],"categories_segments":[],"categories_sizes":[],"default_left":[0,0,0,0,0,0,0,0,0,0,0,0,0,0,0],"id":81,"left_children":[1,3,5,7,9,11,13,-1,-1,-1,-1,-1,-1,-1,-1],"loss_changes":[1.3547947E1,4.5429125E0,4.2530084E0,4.6078067E0,5.9820805E0,4.2977214E0,6.3645363E0,0E0,0E0,0E0,0E0,0E0,0E0,0E0,0E0],"parents":[2147483647,0,0,1,1,2,2,3,3,4,4,5,5,6,6],"right_children":[2,4,6,8,10,12,14,-1,-1,-1,-1,-1,-1,-1,-1],"split_conditions":[5.6819E4,8.448E2,3.7E1,2E0,9.89E1,1.025E3,3E0,1.10595785E-2,-4.015801E-3,1.1369506E-2,1.6805964E-3,-7.5448058E-3,-1.0726921E-3,1.227609E-2,-1.0523534E-4],"split_indices":[4,8,3,10,7,8,9,0,0,0,0,0,0,0,0],"split_type":[0,0,0,0,0,0,0,0,0,0,0,0,0,0,0],"sum_hessian":[1.8415895E2,3.6489716E1,1.4766924E2,8.797528E0,2.7692188E1,4.6244648E1,1.0142459E2,1.7058363E0,7.091692E0,1.731178E1,1.0380405E1,1.4446738E1,3.179791E1,3.3345516E0,9.8090034E1],"tree_param":{"num_deleted":"0","num_feature":"12","num_nodes":"15","size_leaf_vector":"1"}},{"base_weights":[-2.4237707E-2,2.8701645E-1,-2.8440872E-1,3.6403593E-1,-3.270792E-1,-5.248474E-1,-7.457392E-2,7.859685E-5,5.4124454E-3,6.5337666E-3,-6.2973E-3,-2.9222507E-3,-7.913374E-3,-3.5271952E-3,2.1912511E-3],"categories":[],"categories_nodes":[],"categories_segments":[],"categories_sizes":[],"default_left":[0,0,0,0,0,0,0,0,0,0,0,0,0,0,0],"id":82,"left_children":[1,3,5,7,9,11,13,-1,-1,-1,-1,-1,-1,-1,-1],"loss_changes":[1.5234342E1,4.1721215E0,5.128459E0,4.831588E0,3.4015298E0,2.717455E0,4.6404743E0,0E0,0E0,0E0,0E0,0E0,0E0,0E0,0E0],"parents":[2147483647,0,0,1,1,2,2,3,3,4,4,5,5,6,6],"right_children":[2,4,6,8,10,12,14,-1,-1,-1,-1,-1,-1,-1,-1],"split_conditions":[1.03672E5,5.23845E3,4.5E1,5.308E1,2.9E1,5.5E1,8.207E1,7.859685E-5,5.4124454E-3,6.5337666E-3,-6.2973E-3,-2.9222507E-3,-7.913374E-3,-3.5271952E-3,